#ifndef MODEL_WEIGHTS_H
#define MODEL_WEIGHTS_H
const float w1 [50] [10] = {
{-0.837316195757309, 1.2082294516033565, -1.6932959987183835, -1.3561882659554383, -2.4376309212844216, 2.302404674741735, 2.505447113639905, 0.6646500673997326, -0.14963331440750993, -0.8870003911829284},
{-0.547835175779321, 2.7218599373202035, 2.8341393371447534, -0.826799268380762, 1.2856440223419305, 0.21627143151454023, 0.13880444166633682, 0.9958134870971665, -0.1840134362202414, 2.420400587759136},
{1.6765984562271539, 0.8382633040514501, -2.091476717948754, 2.609957866929065, 0.14089961025588302, -2.0424189251284504, -1.7316041399926567, 1.6727588104343778, -0.7233229363695481, 0.7648906555181679},
{-1.455972127050568, 2.0622052200876846, -0.847162681826364, -0.6673522494965818, -0.24542617365341182, -2.1643220449527445, 0.9317256821813207, 1.4458800131939147, -0.39453587711744054, 0.3784189543561827},
{-0.11131410043999085, 0.4717145374348178, 0.6108480220347741, 0.9020455061952705, 0.46899888093382325, 1.56877426503597, 0.013871073590066861, 2.193530975264489, -0.4498798058979483, -0.130980671293473},
{-0.8085693963406662, 0.8488903966430305, -0.994219192520609, 1.5643782407758515, 0.6471371233462541, 1.468884420836833, -2.658519977016951, 0.5820864556625834, -0.9898021576571442, 1.1819307019252778},
{-0.842108243437306, -0.12962353549401032, -1.5891023388905976, 0.3758737129934007, 0.08570516273514558, -1.2141225837641298, 1.3916912809408297, 1.0363857422058143, -0.232758069284055, 0.125552652555173},
{-1.1267495303650499, 3.0471714150678375, -0.04514508819015312, 2.9305480026197235, -0.6783978198647596, -0.5481784654926092, -0.7619729879676621, -1.000588395972319, -1.8113573096038138, -0.4680166585279181},
{-0.16305155513374817, 2.795504053179505, -1.294480351204842, 1.0668914491290062, -0.2852930006843048, -0.43716451392567357, -0.6401748257003816, -0.544747034160826, 0.13939172541557895, -2.042535636450927},
{-0.0777917602069079, 0.1933508500460347, -1.050983132072315, 0.9299602858899267, -0.11671614915128649, -0.46758797474063984, -1.3499291458873313, -0.32689497409594237, -2.180624385764558, -1.2850225165103883},
{-0.46628366692052725, 1.391730411823671, -1.1743543432570456, 1.1554825845578947, 1.3407061030552143, 0.550286822354911, 0.43579220429074195, -1.601619745001451, -2.3650291247146185, -0.1608590926667652},
{-0.19068623125080042, 1.665029891618969, 1.2058741608617891, 1.9813071549233245, -0.6603656867425448, 1.2432824392458601, 0.8987526862119165, -1.3365006758573215, -0.4605321017307087, -0.8869618844216598},
{-1.4543697544350953, 0.5092494212349162, -1.5393905030158783, 0.0580419235286044, -0.14524611634311604, -0.00803810302488002, -0.2299734828863452, -1.2273458886108246, -2.29011546696861, 0.0842877831955121},
{0.019261606102426353, 1.6018739450625026, -0.6704373030285703, 2.154136379256625, 1.0955761912981334, 0.6329299294891746, -0.8753345734471568, 0.4589644272464569, -3.3440067659300277, -0.23807258882996382},
{-0.8170352086889969, -0.11683335330399526, 0.5914838540637016, 2.2701219453781145, 0.29405335462424126, -1.2435998832763941, -0.26341011854584867, -2.280193048433283, -3.6886641102633444, 0.7888098593352455},
{1.1054813875842477, 2.0010459625986936, -1.9398212332565947, 1.1602440243246075, 1.5745810771008553, -0.8282764761948577, -1.9606566881702003, -1.772827706589523, -1.051885114274804, -0.97061586907233},
{-1.5535545441990462, 0.3599844564480784, -0.45011789424218446, -0.5036211466205228, 0.30133845590937464, -0.44442146224803825, -1.3609287981225244, 0.20349293785676884, -0.08352431095310009, -0.018395385920891686},
{0.44328780928181805, 0.3430085041905921, 0.5081576733107352, -0.06539417697466046, -0.9192841712736948, -0.8209885798693008, -0.5675163163067022, -2.2861551800944526, -3.4840775060663227, -0.9603870719013611},
{0.3619836511168258, 0.581109352596296, -0.28700575635863285, 0.17771209838929383, -0.724282026817701, 1.1390534216126282, 1.0775635736012643, -2.489315595054448, -0.7542321230098333, -0.4870751987511555},
{-1.6438346339124728, 0.21504368727093115, -2.8899036471283193, 0.007681274121461402, -0.9811450579210793, 1.6529333048986825, 0.4623737472831136, -1.2563977928700485, -0.035646516657566456, 0.5271946146067467},
{-0.3343674002662547, -0.5740343409897315, 0.31357017241011476, 0.3858788552309562, 1.3442384336409487, -0.17886287908752624, -0.5490654266603412, -0.5814963353891269, -2.0653169249513725, 0.16923190723695786},
{1.0777889285432274, -1.6945920270132293, -0.9010055431881994, 0.3867743889185897, -0.5478399815379892, -0.2629483054605249, 0.10318558804233395, -0.912524722813229, -2.321925242073087, 0.6273121183520245},
{0.9378378874578982, -0.997289348807424, -0.7397101801593801, 1.133810030605617, -1.6201468375727135, -0.049730468766568434, 1.14834563044392, -0.9820279059907403, -1.865153667194745, -0.8226736216196022},
{-0.4461134478600117, 1.8548816599020153, -0.8109950064400937, 1.4627565004303413, -0.8421127306598494, -0.3426316499366665, -0.3934766611572715, 0.47856109315220446, 0.17798449237168426, -1.2340613083791667},
{-0.21520657580509392, -0.36810355415987545, -0.7590973184141636, -0.154956673802967, 0.7108763640686818, 1.0093766365848091, -1.7778606371751402, -0.4003641858105051, -0.30076019112259816, 0.8339720849155318},
{1.0702101706562068, 2.106197561925055, -1.5373627089735327, 0.32383203069825783, 0.17666166684795842, 0.13977337745317797, -1.3239073737133071, -1.1302340453469317, -0.566911165559762, 0.30235906120728745},
{-1.238120603832067, 0.5439945203119364, -0.3098432653837933, 0.7185183032595903, -2.524187938635193, -0.10854340994774597, -1.2708122242811881, 0.6352659811973956, -1.5591957402191705, -0.6297713101009185},
{-1.9971173668346958, 0.10615532519098728, -1.4712426087774586, 0.579738664015522, -1.5830892741057576, 3.3383099266568506, -2.000968512809396, 0.11140424857362481, -2.4379993307927865, 1.8086173114969901},
{-0.7571578129578849, -0.8663709066115646, -1.5732230029772063, 0.866298085891803, -0.6847543541637118, 0.7827307214572949, -1.6169399083213316, 0.12779245868846828, -0.2601656017330327, -1.7500391028987423},
{0.41811302975543463, 1.0319509480855429, -0.8698945518743659, 1.830132580852215, -2.1851169311965464, -1.1514000951320433, -1.4482595856779783, 1.9232622875723355, -1.8678093911995162, -0.482782478005021},
{1.2378914219838126, 0.8579953523770937, 0.3494485640667212, 0.5613568610070993, -0.9311899349523787, -0.8684097329487364, 0.5243077097459892, 2.3115798338949283, -2.012899259211494, 1.4810029237159594},
{-0.021974433875098436, -1.6567352045684642, -0.6487977478608212, -0.7855490429842336, 0.12287664168110435, -0.6007613504283416, -0.11511203652555758, 3.176653143509879, -1.2554784278504807, 0.10484331114504815},
{-1.1628085985361283, 1.580705536670359, 1.6944856946814384, 0.43228871170825933, -1.0962671641809456, -1.5224138578012851, 0.24962467700550567, 0.20429937980721138, 1.831664006230492, 1.1648068826124258},
{-1.6928240689906493, -1.3763215937613589, -0.45834712351574025, 0.5257803654819667, -1.2285988634492666, -1.0249782430808316, -1.4733384808867254, 1.2363008325952136, -0.7102527511998051, 0.8819517075144641},
{-1.4719582160163769, -0.8692728628911532, 0.8288165155441162, -0.521567117808663, -0.025217859143224674, 0.25783161293904866, -0.2109022336351399, 0.851151873120489, 0.21835501498652074, -0.2948804827016408},
{-0.913856994046426, -0.43094836539485226, 1.1205203259050316, 1.17089440506573, 1.1931987397875459, -1.0414330679443295, 0.3635622684368107, 0.4407884930374253, -1.8195795340596645, -0.07025529668394558},
{-0.018829293855285173, -0.8286625292262844, 0.503014706905007, -1.449848814228489, -1.1828759995387659, -0.9550922675347293, 1.379621024029885, 0.7914679961430525, 0.05794053959944091, -0.14963931624717813},
{-1.9605064448632876, 0.3866683813968521, -0.8121250546938448, -0.42306171549468025, -0.7335130598313948, -0.07308293377591077, -0.12179624450687244, 1.9586780660891558, 0.7317109846443224, -0.8653424491477851},
{-1.0046510577762853, -0.9893155428629774, 1.3605603785407496, -0.10928604652660573, 0.8412525480585931, -0.011400650409740426, 0.3704965799535, -0.8400761011756929, -0.614436245995612, -1.5597763667735658},
{-1.2013505442782124, -2.5687889044195624, 0.43052686164119147, 2.1311491432340617, 0.9557647476821611, 0.06615341154019638, -0.19404490910224872, 0.16671057026998443, 0.3457282712384216, 0.11011120251494226},
{-1.670144018956207, -1.1735484308572908, -0.6603631152108465, 1.1227363362857063, -0.7970068401653505, -1.832448637656869, -1.6610957422880308, -1.0720432771295294, 0.15150454109735934, 0.8437143294810402},
{-0.6840735923573664, 0.12172132563427067, 1.1677666309891517, -0.3857877370968426, -1.5807325376177066, -0.40627398941557924, -0.5598124798683334, -0.3079622806754407, 0.48595809023704195, -0.3929955176183953},
{1.5940684750259828, -1.8588278761332997, 1.9967525436452984, -1.2169752728355736, 0.9363198964509819, 0.935002166473218, 0.6197633918213507, -0.35837765751074485, -0.051315645770012255, -0.40303647845169827},
{-0.22978270431701855, -0.22232864194824414, -0.13954046294006314, -0.3411099211334832, -0.37260367615335027, -3.1826268357844634, -1.241329337890653, -1.1204320465582251, -0.4154922621620299, 0.6283165369974228},
{-0.8232336814025052, 0.042420937093178276, -1.0745952954463756, 1.067130448379396, -0.9304711713148598, -1.154128014897271, 1.187402266153562, 0.9704742897621864, 1.2442409648001411, 1.679747119118762},
{0.2571156588456983, -1.6661672795875824, 0.45859986710223427, 0.8910236979773839, -0.8496289065259598, -1.4624498996699409, 2.3563752179927993, 0.45536535538349365, 2.7780622175214047, -1.4688169301059415},
{-0.36824193047967163, 0.7968874418683634, 0.47118687227031225, 1.4975287828356807, -1.5687568989652385, -2.1429469582040968, 1.2598367661474823, 1.682459858475993, -0.19132176264957096, 0.2997423179919187},
{0.03755590774099633, -2.8270163962759156, -1.6349379632441006, -1.2530135751336542, -0.39252597640390985, 0.7802793891563651, 0.20702191565647413, 1.1436427626539891, 0.2256608415305204, -0.1614403594623774},
{-0.41246529292236617, -1.082765150886735, -0.2943673602308731, -0.44009264221013833, -0.8535633815360645, -1.3642805599267038, 0.1601560219289942, 0.26078911625062573, -1.0095101385946552, 0.36232536719117797},
{-0.11899393579630912, 0.01677937641805251, -0.5853286364596253, -0.12626175444130494, 0.22318229827789424, -1.982765822070096, 0.804190993390246, -1.1541353931032488, 1.659495004046414, -0.6926964445333198},
};
const float b1 [1] [10] = {
{-1.0964249785431226, 1.5304012988758706, 1.2421127775874632, -1.3652622846975924, -1.2522429110184414, 1.3309058352856802, -0.9771752574076652, -1.407121987508453, 1.5651070738069417, -0.06784487068319642},
};
const float w2 [10] [1] = {
{4.470385326503318},
{-4.066019228925209},
{-1.0138909048774705},
{3.242419079434549},
{3.0778458597737863},
{-1.3581051951344203},
{3.0648486458677895},
{4.315165528856448},
{-4.827725394058151},
{1.3665792588215293},
};
const float b2 [1] [1] = {
{3.6605643141689357},
};
#endif
