#ifndef AUDIO_MODEL_H
#define AUDIO_MODEL_H
const float conv_weights[8][128][3] = {
  {
    {-0.04363525361551851, -0.05602153512149725, 0.048069805882613156},
    {-0.1503930488735028, 0.029122617969435872, -0.035379838864521944},
    {-0.03387136695262559, 0.08735590379612043, -0.11483135346303397},
    {0.20259736744908854, -0.08566845150488385, 0.053632690195943425},
    {0.006237490035123948, 0.105586243182989, -0.06476747084712739},
    {0.03985520674726661, -0.08823149327186508, 0.022641255288440437},
    {-0.07698964522521784, 0.017926673236967165, 0.050513785706498004},
    {-0.12844976374439074, 0.12431616111660054, -0.13619744539251846},
    {0.03515560312830331, -0.1646553736834705, -0.2841477267887342},
    {-0.10095535500911407, -0.023551381096783962, 0.05847729979664003},
    {0.1157274065952963, -0.11832561653040846, -0.11591534042648886},
    {-0.11681054804083064, 0.030574855774801603, 0.055173121820880744},
    {-0.025483168073945295, 0.05732399214017558, -0.19996169695975086},
    {-0.14436509874757117, -0.05870894415032795, -0.14873124729120715},
    {-0.06427948663981572, 0.08882043006472723, 0.10318612718030185},
    {-0.032730303254632, -0.02650520243203222, -0.018683347441525177},
    {0.11528999230898163, -0.17024221544195647, -0.16476421360187785},
    {0.15627693467132778, 0.01732125683718541, -0.030100886443299904},
    {-0.06084301452273555, -0.027266531654289147, -0.005589473129502278},
    {0.10398854748856148, -0.1573203335539034, 0.04448851376306065},
    {0.10940489940196284, 0.031252467182263516, -0.04625962065667458},
    {-0.14183923046111402, -0.09743959737575872, 0.03315983243146951},
    {0.14288001322880378, 0.04818071055369849, -0.13257994355264285},
    {-0.17781320820913749, 0.20925884853565602, 0.1069304160093496},
    {-0.0925943513078551, -0.04827470308943107, 0.020359618648035562},
    {0.12179878588067637, 0.0040778054668802535, -0.19526012460622638},
    {0.08368359828527658, -0.02875220012698504, 0.1838807115121139},
    {-0.1507884946082222, -0.2558976182520249, 0.08165853427296776},
    {-0.07478178271567992, 0.010959261520708237, -0.042139194048242776},
    {0.09251993939019627, 0.013364842284532306, -0.06745894813727392},
    {-0.01492648125100443, 0.055430373033855465, 0.007662989590387108},
    {-0.010625681398109429, -0.04485072658993288, 0.0585552946037882},
    {-0.07202163580624377, 0.0029627945067407123, -0.009186106049919209},
    {-0.0645482061792837, 0.02464279102628953, 0.07428728687339668},
    {-0.0993598749936756, 0.18147103652058977, 0.04004275877635035},
    {0.0383792692076986, 0.18832619250380683, 0.029131436578559922},
    {-0.07107768085656538, -0.06347463216824484, -0.09911708118582453},
    {-0.04895249139731229, -0.0143664082136403, -0.10068050106598077},
    {-0.020564894400663742, 0.013402621609648266, -0.009162129487875849},
    {-0.01938819237363275, 0.07665633055189787, 0.12458607301876874},
    {-0.06585766335205517, -0.0275454051713558, -0.09726770840034722},
    {-0.12115114249410444, 0.0716905860171556, 0.0650036728920829},
    {-0.12878374488328326, -0.17128419401659323, -0.0077611050703961584},
    {0.05908614245914641, -0.0065872690985003856, 0.03331115571947502},
    {-0.047809883608137524, -0.10057109115233163, -0.02248157765071913},
    {0.016316777222250604, 0.07226637240256957, -0.08400041084459081},
    {-0.0332168077708967, 0.02568978691380231, 0.15805756247868333},
    {0.006335379305258975, 0.0971845412147185, 0.040659147306775556},
    {-0.2357673224505672, -0.13687035634615544, -0.06794505244949671},
    {-0.04202418549877415, -0.08897661116506056, -0.20793709967478335},
    {-0.006595818876809241, 0.14794405639152805, 0.12177726293100218},
    {-0.04594244867159981, 0.03860180704171625, -0.06867731254476982},
    {-0.1512691144050491, 0.03288326486162282, 0.008704803065061195},
    {0.012292897880484726, 0.03492287664135668, -0.07244492428494824},
    {0.15490224497167973, -0.05291214568023603, 0.06588693145209519},
    {0.035860949173053144, -0.05388322432781778, 0.0026445862097857725},
    {0.07997891635557397, 0.03932489707208173, -0.05197940446620989},
    {-0.03844021517193387, -0.16614716989171516, -0.18755841371454446},
    {-0.02446223127199144, 0.0926379348294174, 0.12962985407676225},
    {-0.09203582492160084, -0.18105171560056843, 0.06207273756001846},
    {-0.08405643137812115, -0.12460034338784323, 0.16070265874952838},
    {-0.22068545525659689, 0.08507791052544522, 0.20749066676425132},
    {-0.20626294896622974, 0.10000145844483493, -0.11747196137843041},
    {0.04204135698062492, -0.0026359848911216054, 0.05086726856158006},
    {0.13356183853534084, -0.34918349370637886, 0.05979135862362642},
    {0.05369355872979873, 0.07725885767305497, 0.1265295040258281},
    {0.05907641731396891, -0.06520285422733603, 0.032395626026624005},
    {-0.18888454742207228, -0.023383283591030167, 0.19802826757912725},
    {-0.04803712198139689, 0.16640002961162073, -0.22589194948109292},
    {-0.05347247631079876, -0.04566125815447653, 0.11126750568616646},
    {0.11497754084136819, -0.18836054576714306, 0.04987857202348114},
    {-0.09658515253702754, 0.045647577490483066, 0.1683910019535278},
    {-0.14359264550010628, 0.03136017397336221, -0.027185478029808724},
    {-0.008648556245256329, -0.019425231699355363, -0.04756159210546922},
    {0.046086327343251604, -0.0032427157835922837, 0.03016884538452307},
    {0.005030691415449969, -0.010226492666340292, 0.1397490224951958},
    {-0.1312004673931979, 0.17050504885575882, -0.12005438278110599},
    {0.16188454397429897, -0.08083398555843113, 0.0005723253398004718},
    {-0.20084080144728286, -0.03700159566839977, 0.07083018774926168},
    {-0.06207286022908514, 0.05421413790298665, 0.1566390278544156},
    {-0.06936899057188851, 0.22314687535552138, -0.023953400584997342},
    {-0.10393772886287794, 0.13882032400612027, -0.03717869560626758},
    {0.08211546903688483, -0.058839663896684026, -0.05179128634740415},
    {0.002683157335775134, 0.04532183951556983, 0.00520616883145751},
    {-0.12082034461681027, 0.03542202804661302, 0.05228519456957455},
    {-0.07907703175630328, -0.07592686493374505, -0.06299653638543685},
    {0.08428375768784328, 0.07199335374407706, -0.24602925687792176},
    {-0.03689925944309435, 0.1012782738348874, -0.09880995322962796},
    {0.15521824131114098, -0.10096784086992275, 0.13398233992956146},
    {-0.03818049381769121, 0.021322746323112526, -0.013123666913643514},
    {0.028960714923357618, 0.08629652702692939, 0.1220726474543213},
    {0.026853011421513025, 0.03021174106719572, 0.11419438887142147},
    {-0.06710587011891804, 0.020752569905182906, 0.0897584122262593},
    {-0.06191222813498757, -0.2329404754646836, 0.009768146279219818},
    {-0.12797096364179852, 0.0876484602239107, 0.010700957956129103},
    {0.023970822265842753, -0.052074839777704766, -0.1522030447568499},
    {0.05162439280611732, -0.054153591455023735, 0.014151590444273691},
    {-0.019733109182627384, 0.04054503070020738, 0.018857985978410135},
    {0.04200559672202233, -0.03967769759893732, -0.19411845476364506},
    {0.028222756221223458, 0.04006298220109036, -0.02271902334190873},
    {-0.028930084094681105, 0.052217877134352386, 0.17188273430700013},
    {0.044411613379134324, 0.1634453606072877, -0.08517902519242124},
    {-0.0682591311660856, -0.2313677222641772, -0.11974760841646924},
    {-0.000378988917595349, 0.03640148765413317, 0.041866000127568206},
    {0.05892881564844582, -0.03172658131520672, -0.12008150945300158},
    {-0.056681828668901126, -0.10210436406843221, -0.026667151021746417},
    {0.04439931771672873, -0.12733884516515323, 0.0032455260625848903},
    {-0.04628275999597317, 0.047810252542191865, 0.03248670199438865},
    {-0.011474439672647597, 0.029760575389182434, 0.07904199799337061},
    {0.06221349910286107, -0.03223868026455813, -0.018985881648849103},
    {-0.015555364762300456, -0.048885760736898806, 0.08080709681679261},
    {0.09863184148750435, 0.031192858375546546, -0.0841998057842218},
    {-0.1505902696284661, -0.11915498411601809, -0.0017313445281835376},
    {-0.028601397714009297, 0.01981304925319477, -0.010664920818869262},
    {-0.01910774081353875, -0.021939111453476517, 0.014029630518732595},
    {-0.14144949030888082, 0.15117108849254365, -0.1507987958598589},
    {0.018113154238937137, -0.0761404080124387, 0.05823026898257867},
    {-0.023096750001579125, -0.038515533462366566, 0.008081197308087746},
    {-0.12636364899832617, -0.04695020157046178, -0.14446283358382103},
    {0.10671824085799204, -0.11715291924287952, 0.32656732950089656},
    {0.09571397039044767, 0.10210782277184167, 0.0699607353758017},
    {0.1727627382123244, 0.10017873012010466, 0.1209235629305663},
    {0.0934388370278214, 0.0510084541958282, 0.016308558861252067},
    {0.019208434962621198, -0.1914475197249764, 0.07494150574833709},
    {0.050078030777967464, 0.033966073470418835, 0.18610818731766593},
    {-0.0571604338399061, 0.09046273035386379, -0.15232151116871084},
    {-0.02126181090619694, 0.002846415235080741, 0.001361173162936863},
    {-0.01911835371200587, -0.0009564270177882993, -0.1371137507492191},
  },
  {
    {0.04051934335680244, -0.05076890556261088, 0.08715405097924245},
    {0.04273777864053404, 0.10472370694455968, 0.033658425654568766},
    {0.014790078046174127, 0.08212664736699224, 0.0500942308001359},
    {-0.022234654343029195, -0.05046145559575324, 0.01169052175154263},
    {0.010884776426052052, -0.020200935636762257, 0.16289363398445278},
    {-0.0006911163169893935, 0.02336868938349374, -0.04022613338857681},
    {0.17448542266256573, 0.06834256083246644, -0.0566150999850254},
    {0.011153972501502433, 0.003311072439240899, 0.1603526802373552},
    {0.11945154376353571, -0.2186749665429364, 0.18171707629956524},
    {-0.0435894218414802, -0.07261567325357522, -0.01016105583391083},
    {-0.08185862120534501, 0.041027511277684184, 0.08099827307066848},
    {0.2233816626057016, -0.025474599310809743, 0.056716630272125604},
    {-0.03239386775838559, -0.23036415110811326, 0.01362572040822328},
    {0.07955632938029344, 0.008797977924721125, -0.09878215960620017},
    {-0.29563855394644434, 0.08636665783825653, 0.12284200200335649},
    {0.27579528208152887, -0.014279616122174371, 0.010316194166778979},
    {-0.04805531793654739, 0.07326839934994132, -0.09396215963239515},
    {-0.04504331758874697, 0.07034745662440771, 0.13906723784032135},
    {-0.08953881917194578, -0.010717735404549376, -0.014245329231563115},
    {-0.09200673298447415, 0.017952954999385637, -0.010848143069565809},
    {0.035041438580473046, -0.10247968123979255, 0.14367680880125744},
    {-0.03134873572550059, -0.04361241627636598, -0.11810819215778152},
    {0.060988840284791714, 0.15641764113468018, 0.1918766074730569},
    {-0.04789223278666227, -0.15991509760083242, 0.01633286317505423},
    {0.18661608854848036, -0.04403119853962989, -0.20705879329411558},
    {-0.11491792210389327, 0.009219148672286794, 0.10143516951223563},
    {0.050715586745715184, -0.07790635756191765, 0.21779679363329635},
    {-0.015910667658849197, -0.03442801067107182, -0.018825349938078384},
    {-0.022271388851647055, 0.03183702941338062, 0.1437319683909771},
    {0.033982021019358474, -0.013140944934424382, -0.06726760298904526},
    {0.10901307154859673, 0.1801095576022867, -0.04815704210884843},
    {-0.02618722038311134, 0.07626580497194665, -0.05366014749152144},
    {-0.07639702428726042, -0.013126707661958548, -0.025517401183159583},
    {-0.15590031603072327, 0.009498404004093653, 0.03233019208470356},
    {-0.0343630983356879, -0.003957908016538681, 0.1004388399063974},
    {-0.07595041507784635, 0.06972660841269179, 0.05536140557396335},
    {-0.03931839581941147, 0.0580070795523603, -0.1412087677777083},
    {-0.14294800181249595, -0.14051170486077988, 0.03518255168995783},
    {-0.001538706543380694, -0.028539608246920273, 0.04002202091363606},
    {-0.0018875259447897312, -0.23039102358690902, 0.0336317403101356},
    {-0.1272900077503777, -0.04526757363203338, -0.17586281291429254},
    {-0.20738790269204996, 0.13318742918757784, 0.033019743542995854},
    {-0.06826159213046275, 0.007589028733196973, -0.07818128718323838},
    {0.028531963507619686, -0.1579837955125169, -0.044485876856684946},
    {0.0908669353849994, 0.1275108140682227, -0.0889539164746554},
    {-0.20711105828535492, -0.09052256549081986, -0.0024239257554919823},
    {0.057653543950667054, -0.0528147318209816, -0.07756995345521123},
    {0.14681506007783243, -0.16909641724979213, -0.06754690500061468},
    {0.08482871971030984, -0.22382038063006218, 0.20313244424438867},
    {-0.2553170221627043, -0.024100702062964458, 0.20164590369723354},
    {0.10725792680620515, 0.0836748195956855, 0.05588264163670276},
    {-0.022810502128433194, -0.0370538063410199, 0.00043726137760872243},
    {-0.14134489297345226, -0.055663413251240704, -0.07851038663536807},
    {-0.06650072005447853, -0.021051933334629833, -0.11608425472463646},
    {-0.04828541813545004, 0.04822000317457169, -0.04975010855649009},
    {-0.04002500661939768, -0.13167716089292297, 0.19566438060088104},
    {-0.09624108073855171, 0.0035422669211357055, 0.1555722247629857},
    {0.12322264037918425, 0.049254518990450025, 0.09265714778424028},
    {-0.044360347056377425, -0.0406716558450502, 0.01258127150361691},
    {0.040031113903801416, 0.10301111326955566, 0.27886862088633146},
    {0.034820429874291854, 0.05208753112877315, 0.04482544953129743},
    {0.11560272369363973, 0.16838399799940337, -0.07990752583311447},
    {-0.03333886309081703, 0.044775988028959476, -0.025606794768208485},
    {-0.07825895155086843, -0.11922266613139526, 0.15387220908894864},
    {0.04796779867275228, 0.22007669130362123, 0.15930254927402998},
    {0.2144950051886356, -0.0072907239148451465, 0.021699060325563815},
    {0.13899702745243828, -0.17876758770375387, -0.0565001376008377},
    {-0.005002017311171045, -0.07122972872797943, -0.04489637480336323},
    {0.033749400944767124, -0.005927190437466085, -0.18653549072746112},
    {0.07299842787579201, -0.0925878481493757, -0.07653399109897735},
    {-0.001373056176197614, 0.05030683259547539, -0.037434206534783306},
    {-0.02545463623036312, 0.0726344274733458, 0.05172479552834154},
    {-0.11443406077525074, -0.06790641005916079, 0.09397141002733685},
    {0.006644064396389121, -0.0336324141989068, 0.04195526294941505},
    {0.049131026739272526, -0.09932236031319747, -0.08551725137704663},
    {-0.28710546225078615, 0.06991726286606295, -0.007377332276866324},
    {0.005816227343496068, 0.126637716011839, -0.028054372427831348},
    {-0.010628044384549064, -0.051598452325780655, 0.030311653102355413},
    {-0.13555710062917756, -0.0142066026595476, -0.03746154683841332},
    {0.02703282902993326, -0.13234921727283205, 0.15176357414534494},
    {0.18487897356665828, 0.05512658639935092, 0.02375251852181895},
    {-0.029482530601977114, -0.13275203310979378, 0.13707314445737634},
    {0.1762587758253388, -0.05933022745732981, 0.018288170246674208},
    {-0.14864023694125464, -0.021293225025179514, -0.06835086201992513},
    {0.07380834233068694, 0.07007822871427964, -0.03989692127117411},
    {-0.21053312541055497, -0.029049009977754177, -0.09792151110189116},
    {-0.08491749826122726, -0.1954412638397418, -0.2189390188266962},
    {-0.11566001143242884, 0.05005661957893351, -0.07659613076238861},
    {-0.07172836858361267, 0.14677194617369338, 0.002852648206142649},
    {0.050705507637249285, 0.06198241615134838, 0.009841647537329764},
    {0.030055522850324024, 0.17198451089082759, -0.13339008347391945},
    {-0.1908396376215364, -0.029543696728680676, -0.11071928410590781},
    {0.018012944351413675, 0.08619252430695182, -0.052656693429598216},
    {-0.03299526013489746, 0.12484279117309452, -0.0343539061346693},
    {0.0661336032058661, -0.016006688644467342, -0.2683223977115941},
    {0.05147867395297228, -0.1262638909794286, -0.08439694163584506},
    {0.0020931820606926305, 0.006567387525699388, -0.19427879657078204},
    {0.09859380301660768, -0.0029539389511399027, 0.006381962715462087},
    {-0.05568584820135646, 0.059224283866283534, 0.07981583489760366},
    {0.05190992268845144, 0.056102181495203074, -0.18395975338027384},
    {-0.060664975298550174, -0.010869286118043057, -0.0015004919986590013},
    {-0.025458734362932535, 0.2573793828884931, 0.052731164102670994},
    {-0.021370257449279055, -0.11533125704905095, -0.047034318428501906},
    {0.06737298429335722, -0.031041090385116255, 0.2057643568893257},
    {0.00047228849594649585, 0.0736513415777109, 0.01731626139324179},
    {-0.11624943138501442, -0.07660277030559777, -0.08491526637414626},
    {0.09462023784220686, 0.01576544861756646, -0.07538309671004174},
    {-0.1395457751031632, 0.0554509943958301, 0.04691509818798825},
    {0.1340641050414012, 0.1052131532827473, 0.019285057210457115},
    {-0.06947642274983522, -0.005041965475820132, -0.06785838801989058},
    {0.05825464223772058, 0.1890833240183366, -0.06628873930355474},
    {0.07651640811256792, -0.0918964753251989, -0.09096088185734724},
    {-0.050032888621101626, -0.10748160775518348, 0.07483048116533943},
    {-0.0399847416981271, -0.03956445168355794, -0.03688543548611737},
    {-0.07105347510371961, 0.049248486167340004, 0.21012450688708345},
    {0.03721438591316726, -0.10364089435094517, -0.06273052132599008},
    {0.12098293700226802, 0.005709359789413901, -0.090253638149204},
    {-0.11556145205572754, -0.018301991232863465, -0.08636550838745241},
    {0.08458835456528445, -0.14502385726542066, 0.0782442256749353},
    {-0.20426466999795068, -0.13570676653347208, 0.15324142716155645},
    {0.07718295460290014, 0.25151251837151106, -0.05335251917717896},
    {-0.11678277500586119, 0.12013983590160877, 0.021401600415161523},
    {-0.024837996132723195, 0.16387355275564675, 0.24648472269158522},
    {0.06375701145904292, -0.00965605126817982, 0.06328458610457201},
    {-0.09538506470913344, 0.0047837880616443075, 0.12450989825385186},
    {0.06344317808991606, 0.06601564061971021, -0.16541508100811708},
    {-0.021815847128577374, -0.0030015931222707546, 0.024789120472033993},
    {-0.04954394604524306, 0.00010403079830741409, 0.003132131149627375},
  },
  {
    {-0.019174696838620567, -0.0406691346170014, 0.1426285821340461},
    {0.19935600887230717, 0.04489737038371068, 0.04631397073476762},
    {-0.1936633012507868, -0.2310447883077801, -0.015595394569744068},
    {-0.08140721622697814, -0.13441056927822922, -0.07063865152670762},
    {0.15580152891789578, 0.07467322606604976, -0.06686472461442823},
    {0.192913618467644, -0.002154702660469782, -0.02679973203153877},
    {0.0847399618045008, 0.11826642927658138, 0.018604664336584295},
    {-0.14193220431879033, 0.08903052826064001, 0.09600497313917652},
    {-0.15183598412191512, 0.13000909004822397, -0.11180631206954483},
    {0.09562876272874797, -0.23972998409403085, 0.18447914477849967},
    {-0.029834994301500002, 0.007606283412628832, -0.08140647277667615},
    {0.04446099357882096, -0.05456460236755685, -0.027067896947491923},
    {-0.009193782741760533, 0.26772780337842045, -0.031050853738173425},
    {-0.005824264989669994, 0.022082337063405344, -0.09075273961701179},
    {0.06212089091840516, 0.12716126526430144, 0.10084967132708887},
    {0.22880060980914518, 0.006946824196130627, 0.012842878940695685},
    {0.02628183265738526, 0.10279697948673659, 0.021315681498916238},
    {0.027451706892172658, 0.1277741372442099, 0.0011324526323423414},
    {-0.012617285332024834, -0.04175130479149657, 0.005517228554155873},
    {-0.056348178910392316, 0.03164542109359161, 0.06140224189190401},
    {-0.004998824541335645, -0.20083627020162625, -0.17110819445315206},
    {-0.13367080977177204, 0.11855247575458282, -0.013900400283833065},
    {0.009289203339452903, 0.10215007574614657, 0.019041400577030992},
    {-0.0929679483336931, -0.18839322528375757, -0.17654189295805578},
    {-0.12324850053966525, -0.05012238617608278, -0.0311230163320537},
    {0.0009632643831527229, -0.02496635873825996, 0.17705603336188713},
    {0.011267472499713665, 0.049160379013095355, -0.2053016813440916},
    {0.07543059444264727, -0.04172640243747668, -0.008657198674398448},
    {0.09626266015302506, 0.060698505752664, -0.003032321756381834},
    {0.04439705268937012, 0.25009827705600973, 0.22060850608435142},
    {0.22558068189204758, 0.03962545028650716, -0.07094478544978447},
    {0.03912926305741623, -0.01871957321418588, 0.09317871811903414},
    {-0.0017183852639692948, -0.029173911880496742, -0.09419738208066786},
    {-0.06310610951198471, 0.19176968351771048, -0.07940548542205668},
    {0.01917880410445087, 0.0635376560309783, -0.025269937379157083},
    {0.06403175312573976, -0.07979810567242636, -0.08858558592212164},
    {-0.1065121402418237, 0.017975875946564888, 0.15794526965344502},
    {0.2422622843362289, 0.0045717818250699425, 0.034801619172320906},
    {0.20483298803691802, 0.02145149379421919, 0.10064644152100188},
    {0.2189944912812417, -0.02309746744590045, 0.09457277271331481},
    {0.15501996927815134, -0.10405904397536617, -0.2604115201834727},
    {-0.0010629219025421457, -0.03433001442441305, -0.010368852970668268},
    {0.2050695513108598, 0.10246041030218414, 0.1324329335303304},
    {-0.09290195411774438, 0.17110664386166757, 0.023779942277163728},
    {0.05262876815295328, -0.026093199766862304, 0.006444100609528914},
    {0.014974630659954061, 0.13604330551069432, 0.1616402492764734},
    {0.07630593724943903, 0.21124190654112224, 0.18316132894665835},
    {-0.1946676079974311, 0.019968961657583988, 0.002903034567184464},
    {-0.10778338674730646, 0.10468918420219363, -0.07551828624419794},
    {-0.1847698695122726, -0.022235797367830365, 0.042084558069661},
    {-0.07129557946184678, -0.05476170976216771, 0.12557236700587035},
    {-0.013616475050824773, 0.11286134688527982, -0.001888661736484611},
    {-0.018404588618484385, -0.045321461350095765, 0.06064626690514603},
    {-0.01191077104190982, -0.06669121649953973, 0.07609108053857402},
    {-0.20214332022820922, -0.011344845578655569, -0.11465477955182052},
    {-0.08861653706180472, -0.06774477758056376, -0.0877330824289666},
    {0.17436067300811178, 0.03663401987184168, -0.03088187896955993},
    {-0.017491416280700646, -0.03259321319101382, 0.027077063398540182},
    {0.05637058448615764, 0.018520650790348085, -0.17256403129316564},
    {0.041018135412278986, 0.001679520138932026, -0.09462451618907924},
    {-0.031717649365534575, 0.08198668499603463, -0.08961386079266453},
    {-0.14675468406381476, 0.021106130540874977, -0.13887459743064068},
    {-0.040008136459163034, -0.09143922090824425, 0.12448033669719016},
    {-0.06218404781163324, 0.03434465500520113, -0.14474122107269335},
    {0.047785142992510445, -0.0768932605453867, -0.1106236405318928},
    {0.08075901448039667, 0.061741598535331316, -0.04235535493755049},
    {0.02774542562750089, 0.11332970431196554, 0.03547080562488863},
    {-0.04081859392374218, 0.03181017039427272, 0.08216737132156117},
    {-0.20386815215180737, 0.03650623777665055, -0.06904275110142413},
    {-0.0015470546350649348, 0.10141288985413187, 0.0908567226997532},
    {-0.16084999794213617, -0.0999663899660734, -0.060363018050540354},
    {-0.19039544798186636, 0.044054168698589864, -0.09747060232448307},
    {0.03747832901466452, -0.045089515702436925, 0.05302535085576202},
    {0.2923510514733246, -0.001603643346690564, -0.03725252046801032},
    {0.06258248017407189, -0.03946323790915651, 0.10554113433918755},
    {-0.0024716921494469892, 0.06122934902790757, -0.036165646057647105},
    {0.008794930044403093, -0.05964857239818965, -0.07869289237087392},
    {0.04380048537223469, -0.14656694765166076, 0.02916595138795519},
    {-0.0599083755776927, 0.018381462771229273, -0.04264304641408237},
    {0.06471197721192821, 0.029379325579735573, -0.077802118137129},
    {0.06369467313716674, -0.03128198919046892, 0.03388846445355643},
    {-0.11496991558058821, -0.03451752543487813, 0.1299207497105255},
    {-0.02486396216393078, 0.04988289061371301, -0.08075882323185071},
    {0.06572731708999095, -0.07409135665968583, 0.13380566771752703},
    {0.03446479427374216, -0.0733965750032877, 0.05269016109854995},
    {-0.011868049373921451, 0.08445836766830296, -0.03837551234123314},
    {0.03525833597907687, -0.0019044518342230098, -0.006203128631610972},
    {0.040245787397241266, 0.06054123601746856, -0.004475573072565203},
    {0.03965050932241335, 0.013547476975644183, 0.027696611864376136},
    {0.1127714153669091, -0.0010951929569463818, 0.008977483764465104},
    {0.08152753921295197, 0.09824010765560598, 0.03368875331338334},
    {-0.06133201585062034, 0.07315015809992541, 0.04820557225215941},
    {-0.149441636263774, -0.10013942991788168, -0.09911791270741092},
    {0.05834798445550748, 0.02408245269700676, 0.028022393702289657},
    {-0.18196307695798383, -0.037229881298520666, -0.14111150194531819},
    {-0.1056269811165973, 0.026729596484546637, 0.1400608076004262},
    {-0.0900695163722292, 0.014468095866950498, -0.07891747536416521},
    {-0.02036956975198964, -0.17004246838048298, 0.16827838114593668},
    {-0.044783658061099595, -0.03601836575026787, -0.04254319520692152},
    {0.034195065082163044, 0.012090405186305712, 0.03705372181242441},
    {-0.1529200979950601, 0.2300724535387596, 0.015814791983910875},
    {-0.0094664377189142, -0.051906714212288076, 0.006880304275102913},
    {0.10227699136275265, -0.03150979938967858, -0.16790922478704767},
    {0.10077627267679112, -0.007002654274119147, 0.061330680243887575},
    {-0.015095324953550494, 0.03077188741060451, 0.16433195477041918},
    {-0.05486902042950784, 0.08016327204367443, -0.07989985459386464},
    {-0.20779223157955742, -0.14381414774146026, 0.04087071230408093},
    {0.03606807828135713, -0.18633266421429934, -0.04394409286396642},
    {0.009025835066889087, 0.15097511567251745, -0.01565567158069498},
    {0.04446448597697389, 0.001175551687099869, 0.07995995149128311},
    {0.037586972407173624, -0.007459662178304996, 0.03208553825652647},
    {0.06666143563469444, 0.22658391119433002, 0.014546882489336803},
    {0.1263357364368996, -0.021058320705584107, -0.037315102173990984},
    {-0.08716417991322761, 0.08750609217867862, 0.016214583197909707},
    {0.02864828778109418, 0.13296603317201863, 0.06038428570163708},
    {0.026100947986866036, -0.00579031378974257, -0.08639913384730984},
    {-0.18933577648764216, -0.15434285905381107, 0.06599483516539661},
    {-0.02484381642349201, 0.2028947337988289, -0.08195328511320116},
    {0.1207188088673362, 0.05642782377742313, -0.04206821853235871},
    {-0.031200631733105534, -0.047656447745782135, -0.06759857555250179},
    {-0.003464973960974586, -0.04790887232982473, 0.12296094489476406},
    {-0.038754727223320976, -0.13344459080946425, 0.0014132621172665539},
    {-0.18431368914841248, 0.039717308450493455, -0.032256833831406005},
    {0.04186051445411451, 0.1351345565939714, -0.03540140413696543},
    {-0.10701198262994689, 0.04504107463797308, -0.11394475729823304},
    {-0.051071551004311544, 0.053357215321963025, -0.09935018205057461},
    {0.15922190707258532, 0.09778799848615938, -0.09089689825630126},
    {-0.05207888639712004, 0.04878747546000338, -0.007871160176720687},
  },
  {
    {8.898148641487108e-05, -0.15121806169044896, -0.1041835480682815},
    {-0.023813635325497583, -0.049772086271560725, 0.07154344829929464},
    {-0.05915633398989615, 0.16393276865841339, 0.12159974966674703},
    {0.05861737001968386, -0.04815288413065079, -0.08530818242581234},
    {0.005094463669443685, -0.008436844444271225, -0.19033074731735342},
    {-0.043666977413556796, -0.10000002997820223, -0.11574665329452645},
    {0.21297685795306498, -0.09463639135011553, 0.015460702338811165},
    {-0.11482152753869146, -0.030932795588820363, -0.019904160033470217},
    {0.0348597509289858, -0.14031488711513387, 0.08845884983049045},
    {-0.12580232089882298, -0.004089495344662272, -0.08310585036318374},
    {0.052134570912861014, -0.08734922399865916, -0.016858613133200386},
    {-0.11483538715929703, 0.04521627296923389, 0.0007529695195677041},
    {-0.0716544894383902, -0.16327257342275603, 0.13335361443643748},
    {0.16641329334803026, 0.11815725946575711, 0.06867007593719536},
    {-0.0482995319288283, 0.006723628813284657, 0.04188655101378342},
    {0.15177206727266215, -0.020654499524626634, -0.11184228630315868},
    {-0.22291983079932962, -0.0983722401894061, 0.016565952958710075},
    {0.09442872226635975, -0.18426319904299904, -0.12000253377562908},
    {-0.07439970230181872, -0.1486026140783329, 0.04646190766326485},
    {0.05311621761703015, 0.09521760186415129, -0.03471613270591965},
    {0.03904105937159172, 0.051887461958539695, 0.038613681117389526},
    {-0.16400970150527877, 0.16248001216719576, 0.03684217074039865},
    {-0.13718688825327688, 0.03347099963008929, -0.08035089515734958},
    {0.06441908829485993, -0.01138372419659619, 0.11820087412419295},
    {-0.05122421897515875, -0.04974457817737027, -0.17064302695940584},
    {-0.051986040082394984, -0.034990734978674685, 0.015575543758953689},
    {-0.07511485173386781, 0.0712736597998168, 0.020449077112128372},
    {-0.029653388300033497, -0.14792227102727248, -0.12756417754707766},
    {0.10451946995620072, -0.08859788346791464, 0.04095647412432421},
    {-0.15754895148263812, -0.08683309224004677, -0.026411970062119677},
    {0.018393499890935194, 0.009732531993904886, -0.11029459349015412},
    {-0.05553285882802809, 0.0800565870572918, 0.08727258187894837},
    {-0.15058033981828112, -0.0903299465513558, 0.12088520050106913},
    {-0.044892062986200895, 0.08638857721908394, 0.09246193543464097},
    {-0.19766528234419173, -0.02622113617781271, 0.08751067978236114},
    {0.06990434452865628, -0.09637756466340747, 0.06108539665755818},
    {-0.1308660234215704, 0.08846444666032358, -0.10555678701855123},
    {0.05215204318623101, -0.0852020041973343, 0.19545221467613294},
    {0.037215047555890564, -0.16413380904403563, -0.01021747205630299},
    {-0.06287221737310382, 0.05814127448604455, 0.004552918211999183},
    {0.09793354964022088, -0.009971435774759365, -0.05938659360666354},
    {-0.0850706581172606, 0.02467084884377585, -0.17531244375572685},
    {0.15316688624026512, 0.09885120242995869, -0.012101173001555018},
    {0.137087422487264, -0.1621015387518988, -0.08965623376959259},
    {-0.04700033295760801, 0.005766933791863813, -0.1343469937135029},
    {-0.21360850773387036, 0.014879215988346368, 0.12106386681782946},
    {-0.1254871578936921, -0.007440759421594215, 0.06481255477393737},
    {0.0058283559621410165, -0.06956830830941675, 0.12104158189143872},
    {0.11312662645079422, -0.019806600028905882, -0.1595720213643388},
    {0.15752770769661584, 0.08867325018930591, -0.03564358324908283},
    {-0.06811722402900604, -0.002211903384873673, 0.046373809413109715},
    {0.08718915928923511, -0.02240493698787943, 0.28920355240622037},
    {0.12503274922500993, 0.09498162661076504, -0.05832493428737815},
    {0.01622505652717107, -0.13538005076907286, 0.028305437435393745},
    {0.026914176295836728, -0.05192467470393897, -0.11165995917223798},
    {-0.13354811954751294, -0.09078185301047048, -0.4045606726552018},
    {0.20101192761267528, -0.03340539100723856, -0.08082821266966395},
    {0.12256104006402942, -0.04457602311647561, -0.04251433562089014},
    {0.12184588257161799, -0.05109095354663112, 0.0007588819444154906},
    {-0.010024946895923554, -0.010657849463116736, -0.11910762141332323},
    {-0.09458676619867434, 0.21223774248543803, 0.14458553546736697},
    {0.08870873974219406, 0.04486256396274951, -0.01212262977407341},
    {-0.03104865998696329, 0.07562404338868299, 0.11635180027135444},
    {-0.05377675387669659, 0.11819281078684965, -0.11244327745498657},
    {0.07669970670982514, 0.006474423579549965, 0.11564103123457395},
    {0.00046786834819897055, -0.23200075486017335, -0.12920363626113515},
    {0.0649658164185326, -0.0372804055410621, 0.07855941418137734},
    {0.16374069200971336, 0.060661466687854854, 0.03940844097905175},
    {-0.0749961048165027, -0.10582426547604767, -0.040417661173954705},
    {-0.02857092688721516, 0.10060723883745151, 0.07758047180231063},
    {-0.06038170177823047, 0.24620869806382292, 0.10601518088570645},
    {-0.004769646966423306, -0.002181923275059347, -0.003705417996040314},
    {-0.004894330411928941, 0.08280343385610257, -0.047068792534645326},
    {0.011738860250916815, -0.11430227044981851, -0.04458138707171056},
    {-0.19074759489130375, -0.03792727090215582, -0.08118328109088678},
    {0.006028499854091383, -0.06373060398359946, 0.05296228304220835},
    {0.026065609586975194, -0.056092721529666205, -0.06519673601801082},
    {-0.12009873707676316, -0.05648810429153272, -0.09281627027663242},
    {-0.10939109059709216, -0.10000914740863319, 0.00017220287969550572},
    {-0.014832305099970876, -0.061322503620895044, 0.00923698155702691},
    {-0.2900556294642579, -0.02574566940330035, -0.05786751605286697},
    {0.15022404971081665, 0.09018497981417348, -0.00954238842306928},
    {0.06825518468183399, -0.18536775691620155, 0.23086671732888014},
    {-0.12157686385191951, 0.07632423305389653, -0.13143712662900073},
    {-0.1677288379896873, -0.03926165794476715, -0.036322947923259484},
    {-0.048591462693786544, -0.05985670182101288, 0.09693805479041578},
    {-0.011801377753169735, -0.19497694387164155, 0.021427673468194856},
    {-0.0013841250470609933, 0.021235434938542828, -0.058867837814826074},
    {0.020621040539327312, -0.08976989586005839, 0.19239994509205974},
    {0.02219856239644856, 0.10676823407153871, -0.08881778633129515},
    {0.01934385291136867, 0.06026393320027243, 0.10670856960347717},
    {-0.17477263369837318, -0.06083139380884187, 0.033343007505896576},
    {-0.02781791956798582, 0.11646353033835943, 0.11046029597474581},
    {0.0179686144690674, -0.06818569997060182, -0.00555747714869363},
    {-0.02747086979931783, 0.08009403123301317, -0.1088927767993962},
    {-0.410197812498242, 0.18338053427075485, 0.004021813744925375},
    {0.02538848286455657, -0.1289278644567842, -0.03059683362749266},
    {-0.0778363298737437, -0.09467337056567333, -0.10378520840235542},
    {0.002671201084269048, 0.06237765198365001, 0.029191259363412325},
    {0.15493992531135603, -0.05728547093241074, 0.19855958812927046},
    {0.040833227923807724, 0.127576341968042, 0.1886836168903947},
    {0.03884661717548911, -0.07104601730632909, 0.13543054149720837},
    {-0.17112676297655566, 0.17895825056436857, -0.0482210579034645},
    {0.051278771529645654, -0.05479750528957958, 0.008019403532475688},
    {0.06996833756880429, 0.015516377861068948, -0.10715017971422676},
    {-0.01659999272201826, -0.02098206309416704, -0.008935795998803264},
    {0.011410165757696687, -0.04676780710630172, -0.06277092186400733},
    {-0.008192846692263367, -0.04388097815351094, -0.040157753172331286},
    {-0.0011568372093668392, -0.12268111297201406, 0.03688144718858994},
    {0.03981552390267254, -0.12293073933037175, -0.010252413796058122},
    {-0.12315521465459489, -0.022646448094861757, 0.129877810828786},
    {0.11350774879503998, -0.2527775908739142, -0.0131985918301777},
    {-0.07504366962161796, -0.0313818050531103, 0.08350487537247984},
    {0.04028801893925204, 0.16973204517009188, 0.10410605801935034},
    {-0.08105980282790076, 0.06354556454494292, 0.061215634863756585},
    {0.0925965645925538, -0.12067380427218946, -0.0030850100299926447},
    {-0.045990401869240145, -0.03720017374880743, 0.044015286561892825},
    {0.016540447369358082, -0.056978536083983934, 0.16002296325521181},
    {-0.04671744752939434, 0.07672861692495707, 0.043148183920767},
    {-0.11165234188958094, 0.010087046175726989, -0.06023081061890517},
    {-0.054708396487275046, 0.0896860078792742, 0.0032041657819627334},
    {-0.018874250169145217, 0.25870456015176546, -0.000333334180324486},
    {0.09727176963860738, 0.06656148766403751, 0.03397400269606501},
    {-0.048467121251026424, -0.0803709224585636, 0.02949457270149706},
    {-0.048192796814965355, -0.137705072936134, 0.0771899418811525},
    {0.05311862219340427, -0.11230047456681527, -0.04925878634766485},
    {0.025220322960499537, -0.021783146483118382, 0.11262776916434575},
    {0.08216193870053516, -0.02050718528315315, -0.17608395726836146},
  },
  {
    {-0.01620347866307055, -0.04274693827134812, -0.06842629727308158},
    {0.20213961723862775, -0.12800792663640892, -0.13900663083095835},
    {-0.23029817120502463, -0.0502391673940473, -0.08861836119416142},
    {0.12730027913103212, 0.04688289751810236, 0.007025405568057958},
    {-0.21363854466776788, -0.13273928839786417, 0.12443551094218173},
    {-0.031152101701661935, -0.05692305977580393, -0.15099545198006312},
    {-0.004050833469668837, -0.05450465820037438, -0.19680279410492027},
    {-0.13892457973936453, 0.03649460706207907, -0.1960542428570486},
    {-0.10552657376076878, -0.02000136963292183, -0.2443511166141541},
    {-0.09536909102139002, -0.16993890019447622, -0.05188606526888476},
    {0.04973716969205563, 0.06498545289729572, -0.035387242714593835},
    {-0.11224502296153863, -0.0460913824464364, 0.018021736513310953},
    {0.10323795419890958, -0.161066182263778, 0.04060859389137341},
    {-0.05014872224396238, 0.06251862259856027, 0.01103765262114291},
    {-0.13165085911615101, -0.09257084946125572, -0.054819959018554035},
    {0.0253682889968537, 0.10107824857928019, -0.06577399043527325},
    {-0.028014970359497605, -0.0459127326779095, 0.0006383696688140672},
    {-0.025071089157705447, 0.05182156203263009, -0.03622196456001638},
    {-0.08307032518586903, -0.0622140547810767, -0.06625303154993138},
    {-0.11428430155420839, -0.30262951067204275, -0.1747912661086159},
    {0.009989355919095362, -0.2404534138650698, 0.07008945329286914},
    {0.07557207592774898, -0.03541560096318052, 0.0965719303218398},
    {-0.08959128116245602, -0.06777989798832733, -0.09507345589985278},
    {0.03684356736537859, 0.22794149527356483, 0.08886338447819846},
    {-0.05687111070337633, 0.08265821861935171, -0.04391280836086921},
    {0.01769067814013057, -0.1656813788440974, 0.027056428673838097},
    {-0.028220167289806877, -0.09087565846816797, -0.01759357268679766},
    {0.10705095386838047, 0.16188121128704114, -0.09962197532574074},
    {-0.060277031272159935, -0.14081698601232337, -0.035776684023940256},
    {-0.0912500539559985, 0.03790924630375282, 0.12299371353592521},
    {0.07829363814738587, -0.0018309469226737531, 0.2362514041469218},
    {-0.012267664793573874, -0.08808529943423533, -0.20040581259854562},
    {0.14698514237355695, -0.06269547777796514, 0.23830799921403023},
    {0.08728746695342542, 0.04976528940626415, 0.04154306956616239},
    {0.1256027889315123, 0.04305064375702046, 0.11592834468985816},
    {-0.02225284401892302, -0.07641839881100052, -0.01791031430479993},
    {0.008146347939426845, -0.015743443408523416, -0.10402972216121936},
    {-0.018877749154957612, 0.004387513312176582, -0.13566807445600576},
    {0.11255997446595872, 0.050034016744851306, 0.13703491764531214},
    {0.07965372075482893, -0.1964645817545203, -0.03104213752639153},
    {-0.002803935565918446, -0.07454253568693578, 0.19439730623723522},
    {-0.015573988701247191, -0.06912668449412852, 0.22817379060941478},
    {-0.12975249733877434, 0.002229133468322425, 0.08254606572665105},
    {0.06298775052710928, -0.06175112881164982, -0.22277419079850064},
    {0.22566175170253078, -0.013358700225562898, 0.004811965915052844},
    {0.1610193127997054, 0.04555824722815097, 0.12703432308176837},
    {0.1314717330146982, 0.16004855720840383, 0.011275753411673457},
    {0.08482244920934565, -0.024986110301560522, -0.0030464079357894933},
    {-0.15455968998192832, -0.00861783789661662, 0.01727215805603761},
    {-0.02496197686037353, -0.08342262112525695, -0.09556875143202666},
    {-0.10323084710084392, -0.021388413145443652, 0.019357758304035473},
    {-0.13049619218493944, -0.1067150381187233, -0.09449790610599261},
    {-0.0717402035294852, -0.010002771542481442, 0.12499431677567474},
    {0.16210646057354292, 0.04001255124309808, 0.1483093171229107},
    {0.04158012945835502, -0.0324715383018122, 0.2547257562923813},
    {-0.09913909471679992, 0.0589003203498327, -0.04302556051189796},
    {0.024307035207062087, 0.1505084121365119, 0.0586883939057306},
    {-0.07181225713098657, -0.2592460363975671, -0.19553287943755232},
    {0.13160745280071734, -0.07407955044310709, 0.01343855776577174},
    {-0.1063809000217436, 0.01861597890605594, 0.13709480679002062},
    {0.011221705767621076, 0.23571235866668183, -0.030932334548054847},
    {-0.0958121872602477, -0.06079111828684874, 0.12079892876043913},
    {0.011822043491657027, 0.1083693787223675, -0.060031612084520014},
    {-0.051970320540869974, 0.0843283271847215, -0.0656301122946014},
    {-0.008039294358872573, -0.11265836282860142, 0.07104153256373855},
    {0.019799826547348187, 0.027200715593889865, 0.10375049475654477},
    {-0.11473892921813343, 0.012724169974924985, -0.19212946687051052},
    {-0.03494442819674877, -0.0888047292454377, -0.07073452320796546},
    {-0.18106894274130533, -0.14526814091967497, 0.047277334630739465},
    {-0.018540453311294024, 0.05193799098255508, -0.03586103625494238},
    {0.018989189549731847, 0.09164484378189013, 0.14637648205301243},
    {0.19710074825949075, -0.11379084445418222, 0.014604462476044654},
    {0.08964778910791728, -0.20295304940503325, 0.08591650355117336},
    {0.19440237917601402, 0.06022162084885934, 0.020614228741419265},
    {-0.13475049935026542, 0.09713555870405785, -0.04758651449192205},
    {3.692747708706585e-05, 0.08892453841864117, -0.04999214699750484},
    {-0.01967926847196273, 0.07280024214475882, -0.11117034454973654},
    {0.009972719699861703, 0.150623245978881, 0.005038045253831642},
    {-0.05056566097454886, -0.12495053914837378, 0.029393132333099647},
    {0.02570354809773805, 0.025766743497784135, 0.04280060655673651},
    {0.05652640430846806, 0.09967317803925223, 0.09732574700085626},
    {0.15381125624134448, 0.20862204763462733, 0.09560974488123289},
    {-0.16319988267257296, -0.004326694877431694, 0.023590247753759407},
    {0.05768453766135006, 0.03546045863338015, 0.1432653186071442},
    {0.02206125963556343, 0.04031014909152044, -0.0930603756760446},
    {-0.15032019121817902, -0.05200315086348909, -0.11883359076003418},
    {0.006387231015549229, 0.02046559113833886, -0.07355152858253533},
    {-0.07062654353156105, 0.07854592743019768, 0.09050932156843595},
    {0.1767812787356442, -0.17167649429168289, 0.06621648996916506},
    {0.12607175234586662, 0.1313928409856553, 0.058227778139459466},
    {0.280095464430253, 0.09896432214912321, -0.06366173303355739},
    {0.2574878391250033, -0.037112906285201766, 0.10752560316603942},
    {-0.06676470634544752, 0.04185572365471962, -0.061340924133954824},
    {0.0324342630278403, -0.1542055192972242, -0.1817564582070105},
    {-0.018355619549308342, 0.11310496052844597, 0.10589318077000756},
    {-0.04965109574528358, -0.13469202422084844, -0.08668403279008362},
    {0.0075178754025971815, -0.03838403122323636, 0.1851481520794},
    {-0.1841684219297575, 0.062017722033276414, 0.08149734650495227},
    {-0.15793125343819212, -0.014351670262311905, -0.004239504091560998},
    {-0.001955817177718514, 0.03715644151153572, 0.0794149924413746},
    {0.05975099582940629, -0.0743672230822403, -0.11310005059140296},
    {0.10626695709683372, -0.005280177954067305, 0.0486494755623359},
    {0.016882134250284616, 0.011009822565041185, 0.019210060932436438},
    {-0.22181276989224902, -0.15581931089131312, 0.04458946663471586},
    {-0.08079809841202584, -0.0481748347635882, -0.03763922929622733},
    {0.06451361302682664, -0.09355174080241833, -0.05874718430236553},
    {0.09309763147984967, -0.04434569903589983, -0.0399308042697849},
    {0.17962312092816957, 0.08941300801293783, -0.05342249943714603},
    {0.1660907623899919, 0.07313936591691696, -0.09663231422759716},
    {0.03179504853840184, 0.02878993303114117, 0.05496325428246397},
    {-0.044804970312524756, -0.03587008030087064, -0.054915679543240295},
    {0.06643979817931377, 0.08716901938944899, -0.05400732705160292},
    {0.09017249394705301, 0.03412335187865544, -0.04760327011445924},
    {0.06300670666343476, 0.07372358604940814, 0.02894298321434486},
    {-0.12595855159864944, -0.01707007820335851, -0.04566557315292136},
    {-0.009774821977120759, 0.15798291282712368, -0.19228545652375104},
    {-0.22197618503684985, 0.181112056784975, 0.22160379704624011},
    {0.021631372218937645, -0.011922021567543328, 0.146569735716703},
    {-0.0029679049883241763, 0.06620961992282023, 0.1234772035321994},
    {-0.020257599782483066, -0.17281047358826543, 0.11621895550145406},
    {0.05074768407100874, -0.058362342666222436, -0.10228067334307614},
    {0.06535563854473152, 0.1099987067597529, 0.09747090126296606},
    {-0.23907529897104762, -0.12603160929966056, -0.10208668546388172},
    {0.10728725004355873, 0.03817378809767401, 0.25558215128851114},
    {0.12882121243820174, 0.10726198431656052, 0.02548790137102043},
    {-0.09282041184362232, -0.06543703972043281, -0.010127026264716133},
    {-0.07501969366844695, 0.0986043580132164, -0.05723174283726632},
    {0.1448918779301344, 0.0610678733626998, -0.22191039767147475},
  },
  {
    {0.04288205684955212, -0.15207664396638695, 0.11783865025968582},
    {0.042524560037378756, -0.12770607619592164, -0.019348228991100065},
    {0.2180109455660976, 0.009455719822780588, 0.17425327855242478},
    {-0.09554372168027425, -0.003687342301182334, 0.0896434106594371},
    {0.03419273733991062, -0.19178627640406404, -0.008422574678396052},
    {0.09208163476496722, 0.10325128273679698, -0.05745016199499873},
    {-0.10187988914671323, 0.06934568887608597, 0.04344121060934226},
    {0.055414698947756406, -0.09914427527272741, -0.06533815917439516},
    {-0.10670622601011204, 0.07613413578743931, 0.024649342838470267},
    {-0.08118288303960942, 0.22390072110762357, 0.15616314351316407},
    {-0.10348776793347503, 0.03068232197900327, 0.006826354499605572},
    {-0.03299566513675583, -0.012506721599522581, -0.022136407779620684},
    {0.1567810212624613, -0.00954208442552898, -0.02457925003418611},
    {0.018646508830554197, 0.030836066525025897, 0.1148239260941071},
    {-0.06781565864846338, 0.05260339812386519, 0.03977511761022547},
    {-0.0637695999454025, -0.0015146782645062804, 0.029533190673864135},
    {-0.02203166883621091, 0.06436665589717017, 0.11104126094048146},
    {-0.058160712974466025, 0.005733609485598083, 0.03686511459249012},
    {0.035416005507821535, 0.0960611613957432, -0.02442854174487978},
    {0.03272552237229051, 0.0002986215470644037, -0.04947234662602781},
    {-0.16012780704889285, 0.02642363001037855, -0.06699617012796677},
    {0.12529547908683317, -0.03741399445971746, 0.08954851938421793},
    {-0.25410986921356515, -0.18274972364551498, -0.11809860539841913},
    {0.054124465183741914, -0.1047811178382102, -0.08934153083672988},
    {0.0173981550265772, 0.17564460184334846, 0.003805829650199838},
    {0.06176464497958152, -0.18321337230239765, 0.0011602940782594903},
    {-0.03634380143707451, 0.023640085477147566, -0.017214966998384037},
    {-0.05079263446670416, -0.039541699787514185, -0.0957838900974588},
    {-0.02867493171418145, -0.1740098338462398, -0.0007502333830590648},
    {0.0038689622714273794, 0.06508924210266417, -0.05012632261485918},
    {-0.16741131305780071, 0.010350469452212123, 0.2776832012663423},
    {-0.05642871748023988, -0.0242441777902912, -0.07939370904556695},
    {0.044294628777476926, 0.0054944230235115426, -0.021051576365692357},
    {0.09805075690910516, -0.05731814516383769, 0.06669195191041387},
    {0.05890083869437851, 0.014575401280371101, 0.0012601883616465861},
    {-0.062065202894649465, 0.2608400634413928, -0.17187344547725733},
    {-0.12246945147249409, 0.09786416321934682, 0.09917796245616212},
    {0.12395246676974488, -0.21938216469532643, 0.09823034313784318},
    {0.16372759990396724, -0.2068327453575849, 0.003865511556318744},
    {0.08622743675021312, -0.14844796644285133, 0.11637695923241748},
    {0.25102968280794524, -0.060316193060958534, 0.07731043363954317},
    {-0.007077251861088124, -0.03849314228528393, -0.07134725628542042},
    {-0.06544005368814124, 0.08439505513194337, 0.029633524214275703},
    {-0.038710130151249585, -0.049045533294311265, 0.05521142032274519},
    {-0.09917081809118868, 0.11786839828549306, 0.08572195935398058},
    {0.185939551666226, -0.039929666268777274, -0.016961032734441283},
    {-0.08048346986924707, -0.14558412636779167, -0.2311957637365569},
    {0.02263441707907695, 0.016580354194615874, 0.04207090097853282},
    {0.01083768930199331, -0.10734429317603572, 0.18571663257387483},
    {0.049108475001763685, 0.12406091197640108, 0.0977294764062273},
    {0.13353976064285933, -0.009472487223052703, 0.2182565140156978},
    {0.01656139452894014, 0.030030293071199, 0.007519386250951041},
    {0.09660919407974645, 0.13163130543971224, 0.08948415452893792},
    {-0.02198538864169943, -0.08411003506094461, 0.08097154635465112},
    {-0.007021103496944349, 0.042577844773157465, -0.059445804234216665},
    {-0.017062169189827652, -0.06792321535099043, -0.21786553801785238},
    {-0.14154896959484004, -0.0003669503092284168, 0.09816542219007737},
    {0.16480663166421924, -0.20098143042341274, -0.055548829318690734},
    {0.24310040029489, 0.0012106324553190799, 0.017598951075923772},
    {-0.01848656206912103, -0.1469643214000469, 0.10083513752214786},
    {-0.14192556670026235, 0.012647734000806, -0.012972789356099046},
    {0.026730046096948165, -0.0323452419741283, -0.007423656295037571},
    {0.059195631677888265, 0.10755387435113872, 0.013547182853214507},
    {0.08971154705465782, -0.0717653743325583, -0.02245230726632251},
    {0.006835586214527118, 0.07967282985831176, 0.0302420182721664},
    {-0.04399451461012138, -0.04868208789707092, -0.12202925079241787},
    {-0.030788344801597745, -0.1166147047688767, -0.07486989499546585},
    {0.03696881691510206, -0.07787031943035971, 0.06616869606580757},
    {-0.09135793850943145, 0.0011161694664297281, -0.0209166481031724},
    {0.03720242555043959, -0.036845757396540176, -0.10748315182555597},
    {0.020261834400711498, 0.11213813271110216, -0.09071675576189132},
    {0.017967875052326086, 0.17029263690197627, -0.04355321564796413},
    {0.03377855647126859, -0.06696919209304746, -0.16600551268969285},
    {0.13388558140930237, 0.20293392311650701, 0.17840402950804687},
    {-0.07648146107342119, 0.061198308126458136, 0.1819770965670773},
    {-0.04496789552387232, -0.06498257837632768, -0.07335190118923955},
    {0.11465324313987826, 0.1199036883517925, -0.02833910959074698},
    {-0.15132664474821858, 0.042224026064319777, -0.07383791078866342},
    {0.09941676451453713, 0.06164431137577804, -0.11598506705816017},
    {-0.025594769562301695, -0.058200984281068346, 0.0540853558478872},
    {-0.19018205320338338, -0.043726550698013816, -0.05782626070672014},
    {0.07131437297918652, 0.06238143071373962, -0.004230381275687068},
    {0.008013127493375965, 0.05446182690217491, -0.03085930295418468},
    {0.17446038574700073, 0.0393555345075179, 0.03271060630807157},
    {0.09454500248227704, -0.004055304918989338, 0.005309576518095769},
    {0.2895582705969258, -0.007427595213486552, -0.041860194817535855},
    {0.17296452829172165, 0.07195194874246506, 0.20585228578854942},
    {0.050812776632401004, 0.10794457135809384, -0.1168467482247821},
    {0.10389987309496024, -0.0015449847186195136, 0.06516346636935942},
    {-0.005929663537273611, -0.054325469218798564, -0.05608440767929454},
    {0.17540806805984294, -0.01971851354996719, -0.11253420391922977},
    {0.037700419603054564, 0.09541188603245095, 0.11284617002976727},
    {0.07288815614682068, 0.07373709129653117, -0.0012908601527744762},
    {-0.01294562135996352, 0.051278081775612654, 0.00245130270869849},
    {-0.08436306901751735, -0.11116373858797311, 0.1083550513670142},
    {0.013056206622654817, 0.282057082794946, 0.09536361580931811},
    {0.11166628900667781, 0.028616392604936404, -0.022095005835140416},
    {0.06393750166564414, 0.07909031500498305, 0.1063038834805436},
    {-0.09291415529849179, -0.030186834156907344, 0.0379205311440935},
    {0.17264773019933938, 0.1485804215070895, 0.06029603785119465},
    {-0.08342856342138386, 0.03523940814946369, 0.009300769215155524},
    {-0.02718977152924993, 0.07043374544546326, -0.15945287015396373},
    {-0.1132163123267591, -0.014754852582785458, 0.035723435822329105},
    {-0.08467477455296585, 0.09252649508891636, -0.20284557797044123},
    {0.12329620885353915, -0.054693258009359424, 0.07498823117767911},
    {0.05574795148944983, 0.006076771906435918, 0.005441509941208912},
    {-0.2861957510886658, -0.06571515102183623, 0.030556899982262083},
    {0.020897031969530175, 0.011219482107906438, 0.08764024942501217},
    {-0.024053699577653243, -0.12147439742690083, 0.19197489709918925},
    {-0.06413198378688548, -0.015893303330329712, -0.033723858017622385},
    {0.03513831473496822, 0.08828742386302553, -0.07450199623229285},
    {0.06999390071989962, 0.07402772378260189, -0.07053457596595773},
    {0.08378359347196378, -0.054582598358306145, 0.03197058945849902},
    {-0.13613214364934387, 0.20102813192470448, -0.027933451132757997},
    {0.1034724168247619, 0.028055034021238746, -0.17063950343795076},
    {0.09854431592387801, 0.110960822473164, -0.13018633397322685},
    {0.02599492767229504, -0.062405957104349985, -0.0166174183839273},
    {0.0760182412122847, -0.1554525457312441, 0.0761274486714703},
    {0.02795029309475605, 0.08694481014079125, -0.06590403511349983},
    {-0.05077802266587464, 0.14877584351763698, -0.05494404723995468},
    {-0.2262692025324038, 0.010994640306237154, -0.035916388099325756},
    {0.06898036235759322, 0.16769034726597506, 0.10270563319446287},
    {-0.022158629065450665, -0.043400937644769294, 0.04055994073961627},
    {0.158773292881863, -0.07797542374174832, 0.03634165855237128},
    {0.003976570586230856, 0.05563063197320004, -0.1363217472111096},
    {0.07537676957323099, -0.10873697000623782, 0.09517884957519143},
    {0.058866051067880315, 0.07760944262045472, -0.037840637966735924},
    {-0.008304029817696961, 0.018257998506447465, 0.011741972440373524},
  },
  {
    {-0.20102667626396983, -0.18962976927419417, -0.057864261101964624},
    {0.0829417822258944, 0.13314182911404332, -0.08499206356159733},
    {-0.1555202074688605, -0.05690543464245721, 0.06181963914379567},
    {-0.11343442008502332, 0.08418999913736502, 0.1707044531742682},
    {0.12479103986984458, 0.1847861645690781, -0.2419111633776619},
    {-0.05488224037780054, 0.07519956043383946, 0.1634984067512567},
    {-0.05458266451527238, -0.01651061712213927, 0.08716815866028704},
    {0.0005228855558618435, 0.0159444773905982, -0.28354818764121675},
    {-0.009291841871494368, -0.07431159881352896, -0.13234302180869625},
    {0.04299964918448799, -0.14119968333705074, -0.09996639004267671},
    {-0.18198821671953383, 0.05973880878558724, -0.03287412689134633},
    {0.17814213710596769, -0.09022619357892642, 0.006757730029751856},
    {-0.06905291885202812, 0.02563521295609111, 0.10282842457265723},
    {0.060149437445868204, 0.08003966144280496, -0.05348298445572598},
    {-0.15593747654975007, 0.10982478883489584, -0.14748107166942473},
    {-0.024046484754702783, 0.02210597022570958, 0.0038105421482737124},
    {-0.04121859568445492, 0.11713776380010231, -0.1379641559164701},
    {0.06573878969009266, 0.13065265214899804, 0.011204874990911738},
    {0.1720610146963234, 0.022191803200802076, -0.07589312459415627},
    {0.0058208933417187485, -0.016830368779441048, 0.1328805921419319},
    {-0.15485162250754186, 0.00035426513326998433, 0.005041687113730041},
    {0.04759602566336122, 0.029599597494812904, 0.002359377019161783},
    {-0.04633420557132776, 0.022280877147390157, 0.18738952342488813},
    {-0.15863987976968777, -0.07852428202457974, -0.05286940011027694},
    {-0.1290115315945317, 0.10388557944995785, 0.023770383563561284},
    {0.1905766697351733, 0.06215374148137538, 0.019864238503692025},
    {0.00829193321047018, -0.003250391648434272, 0.04259286974275704},
    {0.12719552769350978, 0.061456280062729074, 0.04643112862918819},
    {-0.07633805967783065, 0.039659158048421864, 0.1650794953571827},
    {-0.04478350035953717, 0.11703964524062477, 0.11228659318726937},
    {-0.0025417869769133903, 0.03197692949408768, -0.14253181108378996},
    {-0.1880457108332975, -0.007287675922729931, -0.005492608952025338},
    {0.05670975163467217, -0.015165702191822101, 0.012737909502824166},
    {0.13658325734194832, -0.0521891417233789, -0.008820486320027668},
    {0.0280480453800192, -0.1140277527846358, -0.0014597515492284778},
    {-0.09719668476271427, 0.027433062576883677, 0.01839246014866971},
    {-0.0690625639939655, 0.11864387293654158, -0.016554837044835683},
    {-0.017355346092859023, 0.07462882937706349, 0.07817376338423161},
    {-0.083938921423904, 0.04366872107612387, -0.06274578362778209},
    {0.006942701997588909, 0.042295606065292445, -0.12272063548853523},
    {0.0028313429650295673, 0.007751597115676058, -0.06776269079230107},
    {-0.037728139051904835, -0.012845120006283526, 0.013473209066793383},
    {0.21086456271428486, -0.03750777013604267, 0.057629941544870514},
    {-0.01528770377759883, -0.018333470294440653, -0.06955619981082434},
    {0.11430350042814062, 0.19463928223266286, 0.15207830101868594},
    {-0.002081182417192294, 0.0724155437370508, 0.08850022067805459},
    {0.08085833277087169, -0.1586875460926582, 0.005705441578868829},
    {0.07695773396784199, -0.09425665333087035, 0.11210938452508763},
    {0.06872274036682255, -0.10885038255852825, -0.13281829341148116},
    {0.14421038488124882, 0.09238096099423682, 0.0714228940578117},
    {0.10191821551994021, -0.07532028106878114, -0.1253616113798631},
    {0.048048935984094966, 0.035815782254626075, -0.037982972448223115},
    {-0.018510630167272817, -0.05334342753588614, 0.09847957387315544},
    {0.10264945563055689, -0.025954717474131375, 0.23554038031732377},
    {0.13255740443726247, -0.12154798678927076, 0.1051725167564077},
    {0.06259209416611854, -0.025730930570799993, -0.05236562020378724},
    {0.06571428849796983, 0.005133381453165656, 0.028682000633551863},
    {0.09315510845505355, 0.18854215626452736, 0.1798506171077627},
    {0.04345150828158001, -0.17563789596464674, 0.016038130823638287},
    {0.011049373660033767, 0.025800061299242196, 0.04774313154782106},
    {-0.2357203510773236, 0.004907831901847924, 0.18425324372406576},
    {0.04289058135867457, -0.10904945419429213, -0.1477217259539993},
    {-0.10039984372498233, 0.04102719469828286, -0.024794037984852507},
    {0.14372340228263383, -0.02270021092158986, 0.011478401228175611},
    {-0.18307426330215829, -0.03561540131938958, -0.023046273447308807},
    {0.08004602314121273, -0.06529774491593181, 0.08709716544959166},
    {-0.0012903627100698594, -0.15312777576937814, -0.06436434815674069},
    {0.09498472026574102, -0.04878351912186009, 0.05449496335627825},
    {0.01806116149432396, 0.01395551180462342, 0.012576281375525673},
    {-0.056433232700320385, -0.00399869142910718, -0.012020861667542224},
    {0.021081196948726896, 0.04582818459910686, -0.03863737964244196},
    {-0.16705584398267623, -0.1116591715131518, -0.11388028718286887},
    {-0.12775960544529552, -0.08302451374754549, -0.11216251612222948},
    {-0.19009215075229932, 0.14634377344698724, 0.09464564083597786},
    {-0.022820411643918334, -0.0881290535307262, 0.006109980588237004},
    {0.04462242014096553, 0.09353403217152995, -0.052263698885014746},
    {0.2180843906740505, -0.03015744984811483, -0.03680103975441317},
    {0.052308250109799836, -0.16783862439251596, 0.05653260113589528},
    {0.06334960394371057, 0.048141089387096436, 0.09441450239993399},
    {-0.047966512268580334, 0.15290448270216223, -0.005442349011061389},
    {-0.04265380870933679, -0.015776634477328823, -0.16111691815450768},
    {0.03824850821615467, -0.14105697132193798, 0.1307244629537277},
    {0.03210358842902625, 0.04078073293066864, -0.07329998861902458},
    {0.10373511233416066, -0.1573879753599904, -0.03800099079823968},
    {-0.018307853625680465, -0.06481776629467832, 0.04437764703678715},
    {-0.0644453297573031, -0.081409163557127, 0.040816783003804834},
    {0.1799209665647617, -0.12569869280930668, 0.11220893167131273},
    {0.013749112885378882, 0.10218522214272036, 0.1191936011226028},
    {-0.08222048765662024, -0.06007812503837917, -0.08785489705492888},
    {-0.05144587183790829, -0.002541130699587846, -0.08084712563663803},
    {0.0648106442612661, -0.04113106358069945, 0.09207562925347143},
    {-0.0935440626352185, -0.010239081956961264, 0.03495113429218098},
    {0.1190027791416823, -0.04653297112831772, 0.11065185990534912},
    {-0.15489675580122197, -0.035956079682278264, 0.039982912217675005},
    {-0.13526297765540707, 0.2631605366943453, -0.1152182021768571},
    {-0.09230177116278213, -0.009725791421727262, 0.12390086131685939},
    {0.24583358327052693, -0.07729942765334849, 0.05988563477412761},
    {-0.06155153885462109, 0.01859971254831639, 0.05858060366601713},
    {-0.03781824079275048, -0.12462626052454671, -0.04783274279668176},
    {-0.08731909526691092, -0.1817992152176338, -0.06486639730589955},
    {-0.04423243985632956, -0.10472237100881683, -0.07251041500751036},
    {-0.09421099565607212, -0.05633436991659083, 0.08044648024525836},
    {0.12046968101015464, 0.0579633579974228, -0.17676810260991938},
    {0.04326454527109094, 0.049704446102095956, -0.023482895096959965},
    {-0.053301189521727355, -0.05077294029486286, 0.19500370475288575},
    {0.050453093216915504, 0.17100877085109076, -0.19290668945143288},
    {-0.12122932666218118, -0.10746782492203871, -0.04201728016277056},
    {0.05351670468595104, 0.08987350378584517, 0.08466629757296817},
    {0.009296953243361994, -0.1002409659450517, -0.2659338952568568},
    {-0.10405141916844024, -0.0321361192384392, -0.11986679607995439},
    {-0.04858128374122385, 0.07350154323320841, -0.09407384385109513},
    {-0.0735009041459712, -0.017074059903289203, 0.020412783882670867},
    {0.012117814918041474, -0.11426232225987863, 0.10682668814802734},
    {0.033756323798263814, -0.0600885959603161, 0.06887697615343774},
    {0.10804944265287982, 0.007704559650278892, -0.11110226124449091},
    {0.05392459198884328, -0.1308929990106835, 0.002390755342512766},
    {0.10569250931852846, -0.2656344478166642, -0.083897876322548},
    {-0.02525313233943573, 0.0266182427644538, 0.173989674030223},
    {-0.03736468097033068, 0.15334698209977604, 0.06646744931203456},
    {-0.028992099183137512, -0.0413299694660589, -0.038048739868745914},
    {0.004680936473973943, 0.16670343011858915, -0.014571103798430457},
    {0.08327415093864698, 0.014812503351478271, -0.08732088770182377},
    {0.07319384907076598, -0.23356378888188442, 0.025290655871544},
    {0.031736963443140434, 0.14735542464168694, -0.00716002625672383},
    {-0.09059042245733909, -0.08143906442460774, 0.12881395327607698},
    {0.10520004182208649, -0.027173213926460008, 0.04777618520857095},
    {0.12057873194942473, -0.1411857987538004, -0.11497429871546626},
    {-0.08945213224001364, -0.11548372949628366, 0.08029022258168123},
  },
  {
    {-0.05993240754482945, 0.12158321606561309, -0.06183591297185307},
    {-0.027175605331064768, -0.10136173996403763, 0.09961372485708386},
    {0.1481963430465946, 0.1097981146479093, 0.10678348692570537},
    {-0.20715503119945056, -0.1102524999522281, 0.06979613424713636},
    {-0.031721027070161764, 0.16078335056168025, 0.18470258231560896},
    {0.14855923578318977, 0.20541593797099497, -0.10214380996825974},
    {-0.06225443009043078, -0.11006440759426557, 0.024596546941635242},
    {-0.0407992012744904, 0.0006160647002377245, 0.03330054746625498},
    {-0.0317771557679916, 0.04060689535028707, 0.0484837752909036},
    {-0.10758538815231776, -0.07197800272830233, -0.008066169161990468},
    {0.21671078340653344, -0.054821800228985064, -0.06629149547013315},
    {-0.06092526403440766, 0.08449101280814435, 0.09776541018992027},
    {0.08952325250826439, 0.12133403895222337, 0.17586364772897567},
    {-0.18856133352863852, -0.060727403069656564, -0.0002848719092938707},
    {-0.09928311159351505, -0.04921665711500727, -0.13629291198884835},
    {-0.013757860102025994, -0.04723261602180173, 0.08253138087020429},
    {-0.0014466945073151024, 0.20443182681703137, -0.012738194328130876},
    {-0.046324145877683964, -0.18774130893894478, 0.013921482305864832},
    {-0.1043781037151059, 0.011475821403105128, 0.044653662886647266},
    {0.08121764400426519, 0.16658937261659063, -0.03171892731400346},
    {-0.17596743132517378, 0.2199088342300288, 0.0508924516967037},
    {-0.049846465624858644, 0.05501100223351721, 0.050765077367163194},
    {0.062310194172007186, 0.004297946642933092, 0.05762681079466056},
    {0.02999668699618765, -0.001937634187956968, 0.015118846000077466},
    {-0.0176973519327907, -0.0867150433344935, -0.0308972691378034},
    {-0.06875554209621465, 0.0058409605266038144, 0.01703626953223358},
    {-0.07101393845552907, -0.12691721237648143, -0.06894877430905728},
    {0.0676832973798312, -0.10654246071308393, 0.1614113011001064},
    {-0.1788242741857815, 0.03029079867950307, 0.12748858038401284},
    {0.03467688687754749, 0.006978240041129908, 0.08218431073920751},
    {0.07787107844119091, -0.04905247099179777, 0.18467811995218086},
    {0.020543887616664706, 0.11754538595368128, -0.16128811765343437},
    {-0.0010640014982970071, 0.10742356288538779, 0.07724828904207162},
    {-0.14224999076392228, -0.01872724770561104, 0.045070477228333725},
    {0.025313663743819388, -0.08551672225980846, -0.06524956758405784},
    {-0.03203068718539142, -0.0770721692338879, 0.08848969243291255},
    {0.14282834183586482, -0.03300201946122718, -0.13307669540630807},
    {0.03971614520942876, -0.15810215642501887, 0.06596730330094629},
    {-0.012047678417179493, -0.1750469411358615, -0.05846628260102062},
    {0.17480061861829876, -0.0671378178030493, -0.22363364782533157},
    {0.08659375051418947, -0.04013450378989111, -0.10903699178022311},
    {0.03154965671553769, -0.09042507932559142, 0.06320113647834755},
    {-0.03203728981698833, 0.020164973913426892, -0.08320431528196781},
    {0.035742239532084344, 0.1157608969366709, 0.008114069966784725},
    {-0.09610269229609081, -0.051124043199541364, -0.06509271875457176},
    {-0.02757255379455628, 0.07182400619150857, -0.17234392096073747},
    {0.10212314600317661, -0.06622955462453294, 0.0004142608432804813},
    {0.0680863875132252, -0.09671417481064083, 0.1698249899495735},
    {0.07873741058997918, 0.10844566937400091, 0.19384647484231088},
    {-0.0263924279427755, -0.03836504737158699, 0.05982795029984045},
    {0.02176611937530273, -0.08488563190018539, 0.061721661724337844},
    {-0.17089601036150548, 0.03859471872895055, -0.1894695237845444},
    {-0.17312970409646766, -0.01608557002188956, -0.08715277277874528},
    {-0.07641847259829626, -0.03964864331890929, 0.05861863985521873},
    {-0.12783113799137624, 0.07357638958718171, 0.06235857296666129},
    {0.06042503894504613, 0.08753533410463969, -0.15138369671011176},
    {-0.09960139196273395, -0.05911154926364877, -0.15048848806125514},
    {-0.09503329692532116, 0.07283241856277237, -0.12213586785159963},
    {0.051171207859083946, -0.04790108046246815, -0.07228733154525514},
    {0.05460791104679235, 0.05674401321537819, 0.05005551772936691},
    {0.09187713689587042, 0.13289320199600602, 0.0037716784607551494},
    {0.10891363167340767, 0.014930749420769884, 0.05942142153839293},
    {0.17272471357123523, 0.1838177833842277, 0.05297758251552731},
    {0.09045626784432768, -0.11038367501360864, 0.010916357779688683},
    {0.031604268628545894, 0.04353594266860783, 0.16188773942603618},
    {0.15929600542362224, -0.046615525765024694, -0.0016990332134064904},
    {0.020589743071410496, 0.008973298859932746, 0.04825409873154002},
    {0.07891354278036027, 0.04381289945382825, -0.1632836332920869},
    {-0.13254023313695323, -0.019642916281378504, -0.03023879745598918},
    {-0.009186841166520595, 0.018169130952827354, -0.04521458315321547},
    {0.00380441125235405, 0.09956376711785313, -0.03888611068474759},
    {-0.25526107666588976, 0.09973576828943075, -0.05362327678945044},
    {0.006227371762274815, -0.09363880571340266, -0.05904371944617971},
    {0.07418632748264951, -0.03413130598253506, -0.05928549689394502},
    {0.20743125099856582, -0.08150393355293158, 0.11775474407815026},
    {0.17341211551538185, -0.0066767429258993635, 0.23610213699025973},
    {-0.07558366917956318, -0.004748499698687466, 0.08557822981513595},
    {0.03616746420526722, -0.07289646723709423, -0.008766728210096773},
    {0.0020984765745874724, 0.18365036334189846, 0.04410186051738833},
    {0.12677615378555215, 0.1797509826422826, 0.06274338880218815},
    {0.2262748872209487, -0.023814089345780887, 0.14045426814742476},
    {-0.14226845118752324, -0.017078993252308838, -0.004765986040928971},
    {-0.0958970261951515, -0.03049586225796096, -0.1490527622146753},
    {0.055386398755936685, -0.023204859159752282, 0.07938744986517177},
    {-0.12855096704916577, 0.24050312260838777, 0.07052193093322409},
    {0.12428799843502075, 0.00040535146768326085, 0.11415869265926298},
    {0.018998500020209842, -0.11467475953339978, -0.10504804682015277},
    {-0.054435235429077904, 0.07703491376303925, -0.09044248110103531},
    {0.09713197024125306, 0.0633851666513097, -0.08617233128777618},
    {0.1792411510413908, 0.06058148722325264, -0.08797103133792358},
    {-0.028370543261636207, -0.0849339598557878, 0.13089076311043385},
    {-0.10719260554272991, 0.0485816797386009, 0.015750907045871388},
    {0.07951541855025493, -0.1392936346470933, 0.00677057006031829},
    {0.1440963675060154, -0.024006060217814002, -0.03515295975010661},
    {0.16306448104507526, 0.17585586181662524, 0.12535984776604234},
    {0.0113677504271126, -0.07189178776725477, 0.055969542153507794},
    {-0.13712513883346636, 0.27074573721272127, 0.04711619288765127},
    {-0.06187851719221225, 0.0730792201850171, 0.0819461951479975},
    {-0.04571966638408165, -0.039088696950212665, -0.23900996451363454},
    {0.18519273715759277, -0.07255957634367595, 0.03442569284353661},
    {0.02271893300988935, 0.15974677350431096, -0.07115414336579344},
    {-0.019149548961909308, 0.1185310917351798, 0.08759462662572015},
    {-0.08775259975609216, 0.018051898448061567, 0.19294125863147724},
    {-0.03314195867118499, -0.02138691501500063, -0.03491823842375238},
    {-0.1322643235750762, -0.007431354014410341, 0.23345518306433674},
    {-0.15929219279676587, -0.0544854512220988, -0.09729455361106876},
    {-0.13730667107418665, 0.09227867861402668, 0.02135060272722577},
    {-0.06940403970378993, 0.011185559768889679, -0.018112065747882114},
    {0.059241718544826044, 0.08030974993240578, 0.20704455614207098},
    {-0.04428125584683219, -0.060985478802453696, -0.13254949355269194},
    {0.02558254007856535, -0.07820101597679596, -0.026295805312175402},
    {-0.1834424177810176, -0.1676855613975572, 0.19365487597073525},
    {0.06105854436419409, 0.02793274853895531, 0.06962151194758993},
    {0.052193136498306425, -0.06953782398516047, 0.055624032180172735},
    {-0.15354254983513677, 0.01228024726108597, 0.04322112764635033},
    {-0.10820625272064213, -0.027775393911781174, 0.05034559451542828},
    {0.012247568647870214, -0.1158182599877361, 0.1259063719914404},
    {-0.038877276971259485, 0.13247001386290355, 0.11742205912634829},
    {0.0873572372833392, -0.03356156680416998, 0.056553914321500476},
    {0.056332702279861424, 0.13045393092673693, -0.07480011224417796},
    {0.11057062667564393, -0.13054664327428364, 0.08388151379249782},
    {-0.05031901178871715, -0.03055960273632783, -0.10997279605148454},
    {-0.10435352050430571, -0.07880007913054654, -0.04846981149129195},
    {-0.05249039241699258, 0.09712608431499202, -0.04296896546341},
    {0.19247150607612581, 0.024570943465873827, 0.1324480409597073},
    {-0.1602230681185433, 0.1448580361913205, -0.10623162931107125},
    {-0.00539090144927844, -0.15609369244696536, -0.0243250829402019},
    {0.06922564020689552, 0.15042748348109314, 0.0014336316451510904},
  },
};
const float dense_weights [480][1] = {
{0.8288339822521282},
{-0.40515763160702173},
{-0.41494566891470414},
{-0.33441924358544367},
{0.9641925391042913},
{-1.109950216077055},
{0.14916639384608216},
{-0.330465252599962},
{-0.2231027610350899},
{0.9659861538143434},
{-0.31863289494645647},
{0.9444867190482278},
{-0.7470583413861328},
{0.0899818952867961},
{1.0246397213485166},
{1.093598967922508},
{-0.9168392235954548},
{-1.7500050416895894},
{0.26085108646704847},
{-0.6246522348291408},
{-1.3822799036250393},
{1.4917587065046671},
{-0.41896348072060513},
{2.1118018645697427},
{0.735236751435386},
{-0.055619021796258515},
{-0.08777310897971952},
{-1.4379089393813071},
{-0.0791044094677754},
{0.675108271080455},
{-1.2286450617643085},
{0.38404052646441494},
{1.0260125268405809},
{0.19301031442553118},
{-1.3296406676012988},
{-0.2584358426500626},
{0.1694784776816432},
{-0.518642442454976},
{2.232001450692998},
{-0.3894723025876912},
{0.6757336816135323},
{1.1189737925330854},
{-0.4983167232154946},
{1.740126419542427},
{0.47982848716448206},
{-0.024075074840398815},
{-2.8954209633957952},
{-0.4948827449588474},
{-1.4003691378540515},
{0.8457258574214197},
{-0.40646684590271903},
{-1.3641927934466096},
{-1.0332271763552172},
{-0.2466945107148124},
{-0.738190782935287},
{-0.7913140575409431},
{-2.168472307430406},
{-0.9596628476555235},
{0.6298684928640241},
{-0.12759671333850717},
{-0.8512069174993835},
{0.1518425435836311},
{-0.23608612853012453},
{-0.03523337541116879},
{-2.048198272360826},
{-0.5858155002341123},
{-1.3950091260912592},
{0.4387259964853913},
{0.7797771694557625},
{0.028635668653382403},
{-0.006958739418303079},
{-0.7258969606283576},
{0.8584310582616465},
{1.8441773607310175},
{-1.4549628178284493},
{-0.21353655653225243},
{-0.795552035707275},
{-0.8562909597931027},
{-0.8529247816610207},
{-1.0522022430864415},
{-1.715807468948064},
{-0.06732891694535438},
{0.9964944412906407},
{-0.6165785128840914},
{1.2510102869615336},
{0.17426638241773548},
{-1.0245071627602833},
{-0.9260654284870903},
{1.9995925072191385},
{2.4454560631305844},
{-0.24936619812452318},
{0.2907006317856038},
{-2.878267479778544},
{-0.19945043914102864},
{-1.1069565838191895},
{3.407505249580108},
{2.629022725183613},
{-0.2263299160204295},
{-0.7210557525621178},
{1.130510541327644},
{-1.0134754711780722},
{-0.7488248131122832},
{0.7543266426430137},
{1.2714193388644413},
{1.2423222429150453},
{-0.7935398349741217},
{-0.37567540755368084},
{2.045641484160419},
{-1.4572456655845782},
{0.6807934743746186},
{0.20016239148048864},
{1.193636652359824},
{-0.26269996125337486},
{1.0442880782724697},
{0.9645540608177905},
{-0.07270466602397882},
{0.06385616749850015},
{0.066678889117809},
{-0.3738062597072471},
{-0.8241233085403592},
{0.278316273839963},
{1.6550590978922701},
{-0.6186458425580871},
{-0.5183944577773341},
{-0.22899466324376025},
{0.9186029277619698},
{1.858033348755632},
{0.43368041065243534},
{-0.9767836793335449},
{-1.5129240337013816},
{0.9921824208772131},
{0.18642933441010756},
{1.497139855739501},
{1.812222637950481},
{-0.5834453396500288},
{1.5862485368900392},
{0.7762410531205609},
{0.6885053173480062},
{0.4240896231515412},
{1.3828255880477436},
{1.9673538426748858},
{-2.8420432075736297},
{-0.1601988751953346},
{1.0472429559961574},
{0.2322798743154085},
{1.3014898687434577},
{-1.3202917205663895},
{-0.598311319766729},
{-0.8265326323067395},
{-0.04832749454152712},
{-0.9742892016698634},
{-1.035023288693597},
{-0.28491659814891535},
{-0.2941751728282658},
{-0.7533244920245458},
{-1.0509790580600897},
{-0.11921661748437236},
{-1.130437769151036},
{-1.8077060638715807},
{-3.4411185020875092},
{1.0754407790509573},
{-0.6733025268132592},
{-0.7145137388866344},
{0.7586964838428273},
{-1.4545510519808236},
{-1.890354904424561},
{-0.5830941843392485},
{0.9362636079402491},
{0.2924375266537752},
{1.45631054636461},
{-0.042296822878551694},
{-0.12368005783338219},
{-0.15687766327647157},
{1.3709432376083777},
{-0.9659600344226058},
{0.6676699573807093},
{-0.11365542602563448},
{-1.0411811524646342},
{-0.5150451277858357},
{0.20530429446486267},
{0.41670668789537446},
{-0.6478043972664258},
{0.8580677278562827},
{-0.3378759529624007},
{-0.8281685857197505},
{0.8549714225695828},
{0.24932821787739956},
{1.4106672088556444},
{1.8626476415659974},
{-0.11998640694166621},
{-1.494151253946761},
{-0.5401884925227947},
{0.45145924369097923},
{2.290846654158907},
{0.41661620670529564},
{-1.8025871297175118},
{0.5864022062789442},
{2.169678601528443},
{0.6778785234869563},
{0.40088766787252905},
{1.1498273610122667},
{-0.4585175993300767},
{-0.14186031852172193},
{0.45610128098016584},
{0.04469712861078485},
{1.1068613893420816},
{-1.0270345286187788},
{-1.815086719776961},
{0.21582436810622022},
{0.034031160407516955},
{1.1074258868464242},
{1.2287921295879884},
{-2.408094427474311},
{-0.6445477403411708},
{0.9395294410535988},
{-0.28834693828926145},
{0.7198356507680274},
{0.7821862841274135},
{-0.547509836818076},
{-0.01770037196274071},
{-1.7541501047238293},
{-0.15384443218331226},
{0.6052856787949163},
{-1.8637710484179977},
{-1.1871861340927656},
{-1.2199674663545341},
{-0.08378566611892893},
{-1.575839944833112},
{-0.899097285562118},
{1.3381831539472024},
{-0.7269857079978865},
{-0.6634176282350974},
{1.202404794322376},
{-1.124541127873361},
{-0.41606611369765284},
{-0.15002455494631284},
{1.6149470576887481},
{-1.2190689851714331},
{-0.4255764543206919},
{0.6380230417164785},
{-1.1654111044449256},
{-0.4194411025634842},
{-0.7829299616243789},
{-0.043413205434967544},
{-0.8118305910729753},
{-0.25240400568118326},
{0.42842230164267486},
{-0.12873537147524303},
{-2.254453076710909},
{-1.0536216076691556},
{-0.4613626445089112},
{-1.4869047297334217},
{0.08340144087960784},
{-0.6309665300913474},
{0.6682096192545879},
{0.11753020272753896},
{0.06589519748760558},
{0.4157342600971707},
{-0.22734449041517563},
{-1.2985313438469184},
{0.2929602028710561},
{0.7375338515214228},
{-0.49292099719560645},
{0.5121540440422274},
{0.22440044671181006},
{-0.14544199862820958},
{2.1309979359042566},
{-0.1074437237239408},
{1.0642228028664444},
{1.9870083582327127},
{-1.716069326896331},
{-1.0284816039626632},
{0.5615461733408762},
{0.6915621691469701},
{1.0425121148148895},
{1.577798694626954},
{0.7117534463995716},
{0.5337805074068775},
{-0.14354012902980406},
{1.7683057571109009},
{-1.022696736378387},
{-0.818183558188883},
{1.588443923512213},
{-0.7683743899134098},
{0.32148390945443994},
{-1.4166335788207887},
{-0.5920328587912828},
{-0.21693254427776706},
{0.8290331765431114},
{-0.0904985869786551},
{0.6829688402240283},
{-1.9638652853026228},
{0.6528604590706262},
{0.3573072834191764},
{0.1183833567980149},
{0.8389508802195939},
{-1.2073060234291084},
{1.8006662327858984},
{-0.509434252706301},
{0.21446716619874456},
{0.3592434584928745},
{-1.8170920070387897},
{1.651355259348465},
{0.5435801123245625},
{-0.8139011829248044},
{0.27029199046599656},
{-0.4153319230902056},
{0.8725061032917197},
{0.28987549298754606},
{-0.6113153780658487},
{-1.5107638328013746},
{0.9653928871522558},
{-0.06717998386488179},
{0.2705869424495128},
{0.246401205841644},
{-0.23335705623686015},
{0.500597638143221},
{0.5911428151526339},
{0.7247222399990694},
{0.9695704486269943},
{1.2299829820594417},
{-2.12059510395163},
{2.157621222129718},
{1.1271198201012989},
{0.7173562047949691},
{1.6205827783907387},
{-1.4677635352392466},
{1.6114051322353826},
{-0.7137770629076837},
{1.4293509291505984},
{1.1515830491525252},
{0.5082996247277028},
{-0.22638743259686422},
{-0.2928188491183883},
{-0.4777406422882942},
{-0.005451099475791558},
{-0.7233352054523422},
{-0.6802842980034983},
{-0.2902046691870698},
{0.43247535778568824},
{1.2036740517521252},
{0.0002982907054433938},
{0.45054255695199497},
{1.1363155896731418},
{0.25705266239643987},
{0.3181700651963801},
{-0.720883677848325},
{0.7988479279785814},
{0.14042145627422525},
{-0.04697802900513814},
{0.3159397556384573},
{-0.4794786369285132},
{0.3711625840516438},
{-0.5872254962043818},
{0.20032890850373947},
{-0.21258345007735122},
{-1.0294855424044922},
{1.9849739233925217},
{-1.417855416792447},
{0.7476275990680514},
{0.7397271884907448},
{-0.16861876320128394},
{-0.32675556192752214},
{-0.17841737463443286},
{0.9873522334191914},
{-1.4285516181494016},
{-0.2628957639434369},
{0.357958328920614},
{1.1295910583594215},
{0.9728437539376206},
{-1.0559300037172898},
{0.6573942883671788},
{-1.989578469809371},
{-1.1702928367792655},
{-0.9841262928961613},
{1.0011706188127991},
{1.4131174967953732},
{0.3368430886222183},
{-0.7348481019297288},
{-0.008637819522748207},
{-0.03012074848537321},
{2.088752257560738},
{-1.9938837039079518},
{-0.1714885930047875},
{-1.0592610872613721},
{-0.5998327711329113},
{1.0326416473348579},
{-0.02006030289795877},
{0.4773463309543921},
{2.2505542127851013},
{0.7436106187219271},
{-0.1338593126326316},
{0.3364413183656336},
{-0.01078946628305577},
{-1.4347488058998645},
{-0.3387356276480521},
{0.9554913325116534},
{0.48872767828754216},
{0.6593198232572548},
{-0.19388451252381458},
{-2.315171435741344},
{0.7077570330882333},
{-1.0971358646192875},
{-0.5185019965679247},
{-1.371802381956901},
{-1.1482211984896238},
{0.5084283289514234},
{1.4553780068595898},
{-0.6155132699041682},
{-1.4085165037256264},
{1.1772293612894673},
{-1.6240037499331306},
{-1.153531044521815},
{-0.6472485202322429},
{-0.20139361237358522},
{-0.3897672122422094},
{-0.014582777003792301},
{-1.080990423373491},
{1.344068903564659},
{-1.0292842917015201},
{-0.27377516473094365},
{0.5285468989111717},
{-0.01882000202071362},
{-1.3467362052493659},
{0.8524342667390532},
{-0.14030106994182634},
{2.560708841665964},
{-0.9693455838812879},
{1.338981970802232},
{-0.7710706148113371},
{-0.5873098904972762},
{0.296994086097397},
{0.8160518183628125},
{0.6891464557416103},
{0.3389723845392756},
{0.4529232482482333},
{-1.6666521245908787},
{0.09247615654663863},
{2.1309509809291836},
{1.7745695683814635},
{1.484927971741541},
{0.5427834647018422},
{-1.0439116270610462},
{1.3488798022261432},
{-0.9585908364948958},
{0.6505325666439223},
{0.2135301208894496},
{-0.5948528691839607},
{0.9882985495542508},
{-0.00592814936217482},
{0.10091834738971721},
{-1.2868045255545102},
{0.8201875512461374},
{-1.2845427283336677},
{1.4899009534911147},
{-1.1671162585358752},
{-1.0505933099094662},
{1.0356556753239965},
{1.2006549151225019},
{-0.451472416477202},
{1.106452079555623},
{0.6436499903089248},
{0.3821069413411749},
{0.3502201976751438},
{-1.082101217019906},
{1.3989102515715368},
{-0.8827172277544493},
{0.6793958632015421},
{-1.6149854114928943},
{0.9836480702684248},
{1.7598288207458033},
{0.9071365945354546},
{0.29769251638211686},
{-0.9062429389028382},
{-0.9421434625733937},
{-1.317996298351776},
{0.6259427361188886},
{1.7508778239203637},
{1.9960268220771553},
{0.5977733000991873},
};
const float dense_biases [1][1] = {
{-0.21304128527306793},
};
#endif